[ 4.39430587e-02  1.55894607e-01 -4.50633392e-02 -6.34079501e-02
 -2.10451826e-01 -2.58866370e-01  1.02672828e-02  1.05934106e-01
  1.10739477e-01 -1.72025025e-01  1.24847651e-01 -1.83352724e-01
 -3.74588743e-02  7.72300735e-02  1.86119020e-01  2.18423456e-01
 -2.91413546e-01  1.46596348e-02 -2.66957972e-02  7.42180413e-03
  6.84473664e-02  4.10241969e-02  1.53528169e-01  1.92990303e-01
  2.78302014e-01  1.17312253e-01  3.02346528e-01  1.79759800e-01
  2.23254889e-01  3.64067219e-02 -2.02005342e-01 -1.39432102e-02
  3.23672920e-01  2.15067521e-01 -3.76247354e-02 -3.88689876e-01
  1.65566534e-01 -1.68751687e-01  1.41190693e-01  3.04113179e-02
 -7.89804235e-02  1.99167684e-01  2.03829724e-02  2.72422910e-01
 -2.09058121e-01 -1.31021842e-01  3.62134606e-01  5.23464642e-02
  5.42829670e-02  7.07264170e-02 -3.69621545e-01 -2.67217666e-01
  2.38278702e-01 -3.65998410e-02  2.99068928e-01 -1.04123741e-01
  1.36832282e-01  1.37706287e-02 -1.38584912e-01  9.70125645e-02
  2.03657389e-01  2.20311597e-01  1.56604916e-01 -3.51942390e-01
 -1.40115067e-01  2.41183594e-01  1.50357559e-01  3.87445616e-04
  2.27629721e-01  4.80349511e-02  1.74164982e-03  1.95073470e-01
  1.87043622e-02  4.13800776e-01  1.09247640e-02  1.03069112e-01
 -1.75342709e-01 -4.33316708e-01  5.34083173e-02 -3.50391120e-01
  1.77226409e-01 -2.88164839e-02 -4.90107089e-02 -1.29957527e-01
  1.72102138e-01  9.96535942e-02  8.24778676e-02  1.20095588e-01
 -2.85091013e-01  1.47502637e-02  1.82820141e-01  1.74637854e-01
  2.76351750e-01 -1.69735759e-01  1.01681665e-01 -8.68196562e-02
  1.80932358e-01  4.88989875e-02 -2.32749060e-02  8.46784040e-02
 -4.34465915e-01  2.43073955e-01 -1.43900141e-01 -9.18109119e-02
 -2.30042964e-01  1.20229900e-01 -1.40693039e-01  2.28965089e-01
  1.82217047e-01  2.10351720e-01]
[ 0.2255084   0.06322207  0.00159315  0.01848345  0.22657347 -0.09454068
 -0.08836187  0.29979444  0.06647053 -0.06370305  0.22078976  0.05821096
  0.19870071 -0.21004862  0.0042165   0.06496158  0.16523167  0.06527276
  0.1842817  -0.06243265  0.05631552  0.02418808 -0.05515621  0.13690409
  0.10352534  0.18714254 -0.35036567  0.24188349 -0.03631986 -0.04559829
 -0.17704058  0.03864161 -0.12674014 -0.26131287  0.03890894 -0.29107586
 -0.13685843 -0.16625829  0.11007413 -0.14222622 -0.4998997  -0.0159023
 -0.25274116 -0.14970973  0.3195758   0.16352734  0.03510636 -0.38789052
 -0.16025731 -0.11024193 -0.508154   -0.01466153 -0.07050677  0.07415322
 -0.16433966  0.13741282  0.02588682  0.02348679  0.01726276 -0.15190434
  0.01708718 -0.13632964  0.06758415 -0.06109716  0.03738223 -0.07801816
 -0.05558565 -0.12782066 -0.0388668  -0.01462733  0.01899958 -0.09104078
 -0.00376163 -0.12889111  0.3116791   0.19653739 -0.0041201   0.05005651
  0.12753548  0.15486217  0.04025273  0.01442443 -0.38002798 -0.27496362
  0.02791951 -0.24015696 -0.17446557  0.068902    0.18518229  0.06080164
 -0.48475564  0.04107703  0.08072357  0.25895253 -0.18798003  0.24178608
  0.14693679  0.00167724 -0.2895394  -0.39318675 -0.02209855  0.05372566
  0.04694181  0.19460061 -0.04786204  0.3162035  -0.01310531  0.12077954
  0.04301139  0.10673843]
[-0.17686413  0.56493574  0.1310638  -0.02325327 -0.07810115  0.10798813
 -0.2977694   0.15274157 -0.18953665  0.33575353  0.00802452  0.11762282
  0.11495577  0.24974848 -0.05575201 -0.14348902  0.07104363 -0.31879175
 -0.20275651  0.2277719  -0.50910246 -0.15467419 -0.05888044 -0.07316096
 -0.07745121 -0.1491626  -0.56025726 -0.18132314 -0.43805256  0.18056208
  0.1131822   0.60139745 -0.4119111  -0.48581997 -0.38733     0.1148354
 -0.19581814  0.35777     0.06695742 -0.02801163 -0.48947963  0.06668348
  0.34263393 -0.25295153  0.18711697  0.25240365 -0.08032926 -0.2770661
 -0.35879576  0.0215961   0.24916539  0.17399848  0.33786643 -0.40204263
  0.21904172 -0.2344331  -0.3681085  -0.34763357 -0.08845351  0.04218968
 -0.2846006  -0.25893748 -0.24761446  0.22417454  0.32755926 -0.29558066
 -0.12667157 -0.31192186 -0.12894149 -0.15971762 -0.30987343 -0.03546373
  0.19893578 -0.41556922  0.1340977  -0.36236104 -0.15593283  0.07690363
 -0.01580972  0.02893721 -0.1276889   0.23039111 -0.07288022  0.3073966
 -0.18374448 -0.12664816 -0.05043092 -0.16966033 -0.34007925 -0.27926353
  0.51798064 -0.09700663 -0.4289515   0.43015295  0.10029597  0.19069201
  0.0759724  -0.04096955 -0.02103322 -0.30730325 -0.48664567  0.00869726
 -0.29650488  0.01120893  0.1171768  -0.3680322   0.18740883 -0.23079818
  0.05730416 -0.3233661 ]
[ 0.1903585  -0.06459974  0.36056548  0.17919813  0.18802151 -0.2242429
 -0.04659013 -0.08355051 -0.12818052 -0.06345925 -0.01975165  0.00851901
  0.12120447 -0.18939948 -0.04243337  0.11545883  0.23614891  0.08948198
 -0.02454575 -0.12515783  0.30500057 -0.15866527  0.33305693  0.05600877
  0.23736534 -0.04275836  0.06078372  0.03293594  0.21650286  0.14580281
 -0.2798451  -0.5217156   0.22500925  0.13824786 -0.12454685 -0.0118577
  0.09605886  0.15559655  0.06021101  0.06437302  0.41085646 -0.57188785
 -0.28714642 -0.11088776  0.05308606 -0.32766706  0.02953825  0.08601335
  0.1844378   0.17534693  0.10401638 -0.132093   -0.06442383 -0.22401617
 -0.24419942  0.17888615  0.13239655  0.1102162   0.25684553  0.0660951
  0.15340184  0.17620282 -0.14289483  0.22766756 -0.17918207  0.21097182
 -0.05661029  0.13199879 -0.03285079 -0.01339415  0.1654655  -0.01704201
  0.09496282 -0.00759997 -0.12251622  0.06358716  0.03148014  0.12941675
  0.11613265 -0.04564421 -0.12948048  0.04546711  0.27372265  0.04834323
  0.07022934 -0.25752077  0.08268683 -0.2118369  -0.25511405 -0.08031753
  0.19943912  0.18907839  0.04888798 -0.32693493 -0.00599571  0.0293768
 -0.01281391  0.13279064  0.13349143  0.24360119 -0.00974863 -0.36478874
 -0.01247002  0.06451002 -0.03930366  0.10354484  0.27024814  0.37666237
  0.2149892  -0.02626532]
[ 1.99437305e-01  8.27458054e-02 -2.11350828e-01  3.41944098e-01
  2.29331493e-01  3.49083662e-01  3.10740061e-02 -3.01726758e-02
  2.15839982e-01 -7.75576830e-02  3.65511477e-01 -2.51439244e-01
  4.84215207e-02 -4.73019592e-02 -5.50603345e-02 -1.69063345e-01
  1.19127609e-01  7.57419169e-02  2.43372977e-01  8.26458484e-02
  6.84915558e-02  1.58758715e-01 -1.26850650e-01  4.99676727e-02
 -3.04713156e-02  9.08677801e-02  7.52101690e-02  2.29104757e-02
  2.68716216e-01  6.32751584e-02  1.90808192e-01 -1.77313447e-01
  2.26793945e-01  2.91870553e-02  9.93178319e-03 -2.65114084e-02
 -8.10419172e-02 -1.80593163e-01 -1.28141314e-01  2.68213183e-01
 -1.52728334e-01  5.35509177e-02  6.30185306e-02 -1.78864554e-01
  2.59644479e-01 -8.38539854e-05 -3.00913006e-01 -3.17123495e-02
 -3.00376654e-01 -1.36334643e-01 -1.67003974e-01 -8.41054767e-02
 -5.77174500e-02  6.59923553e-02  1.90538913e-01  5.06916130e-03
 -7.02722073e-02 -1.29435301e-01 -2.27653429e-01  7.91106820e-02
  1.73612721e-02 -1.31350875e-01  2.97824115e-01 -1.39723737e-02
  1.72452539e-01  1.27414167e-01  9.80722085e-02 -2.63831198e-01
  1.52219936e-01 -5.17644584e-02 -1.22169510e-01 -8.58601183e-03
 -7.60218874e-02 -4.07803893e-01 -3.83060649e-02  1.69190794e-01
  8.24550726e-03 -2.32888103e-01 -1.38302729e-01  2.02759191e-01
  7.53142461e-02  8.23612586e-02  2.26312757e-01 -3.07890743e-01
  1.48178473e-01 -1.39724575e-02  3.06743115e-01  1.62885413e-01
 -1.20750882e-01  2.17241272e-01 -2.91806430e-01  1.95523396e-01
 -3.21770012e-02  7.68504851e-03  2.43062362e-01  3.60591561e-02
  3.29757243e-01 -1.34673670e-01  9.73251760e-02 -9.26187187e-02
  2.46876657e-01  2.73333251e-01  1.66898564e-01  7.84833506e-02
  2.79727001e-02  8.14236403e-02 -2.15312183e-01  2.50822566e-02
 -1.05459623e-01  1.17180295e-01]
[ 0.10825478  0.29571876 -0.15368026  0.14209893 -0.31503183  0.52346784
  0.14312804  0.1334411   0.03747861  0.31994867  0.22453822 -0.04924172
 -0.09350995  0.27501684 -0.3343027  -0.26008382 -0.16776519 -0.31589067
 -0.4555577   0.274275    0.12504092 -0.22880699  0.3995875  -0.13619421
  0.2411253   0.23708825 -0.1966826   0.06677528  0.12082116  0.19355863
  0.15295994  0.34216765 -0.08566181 -0.30804005 -0.04525528 -0.19501446
  0.10612455  0.08672578 -0.26341546 -0.25039142 -0.28678513  0.2633512
  0.3133344   0.3024253   0.20945239  0.40318352 -0.10977162 -0.13503519
  0.21268675 -0.35977829  0.250811   -0.21160947 -0.33565974  0.11139625
 -0.06727594  0.2043578  -0.23855102  0.29340264  0.1186859  -0.05655967
  0.16985235 -0.06954966 -0.35210386 -0.16265397  0.0076934   0.02614054
  0.15374221  0.20921376 -0.06068943 -0.06224256  0.10242657 -0.04424845
 -0.24328387 -0.0614851   0.10684841 -0.04681238  0.0726496   0.0744122
 -0.11973513 -0.14992747  0.04094976  0.2881467   0.19577967 -0.02781243
 -0.26949382  0.14484237  0.02785572  0.00909839  0.06061122  0.01873397
  0.10597305 -0.3553064  -0.3297873   0.2635551   0.01319411 -0.27869564
 -0.18366262 -0.034368   -0.19307293  0.05680099 -0.38049477  0.36752823
  0.3375852  -0.12099767  0.21308178 -0.28028348 -0.23603554 -0.30152878
 -0.3040542   0.35124123]
[ 0.0974004   0.0172118  -0.07071423  0.24401908 -0.19364707 -0.02383325
  0.26117334 -0.24710147 -0.06344619  0.0645773  -0.25537908 -0.14059795
 -0.18527034  0.29393587  0.17272419 -0.13974838 -0.05714124 -0.18479794
  0.09259713 -0.01371787  0.05530178  0.17181073 -0.08745625 -0.09364682
  0.18486871 -0.22279578  0.2245343  -0.32639083  0.23215808  0.30746147
  0.10665686 -0.3084575   0.33845118  0.21146096  0.27927595  0.27373794
 -0.06715098 -0.12345198  0.3174309   0.17480661  0.23925623 -0.4276345
 -0.16537693  0.22309987 -0.17210934 -0.24455126 -0.12293249  0.11901469
 -0.21942154  0.11689193  0.19185509  0.06725109  0.2563472   0.10255403
 -0.14018577  0.13603804  0.29364976 -0.02474446  0.11372931 -0.10080022
  0.16736755  0.16305949  0.2878119   0.02074993 -0.1714914   0.25562176
 -0.30171415  0.04310833 -0.27317166 -0.01235085  0.02193637  0.26152736
  0.35169417 -0.0380008  -0.08328841  0.08875934  0.19421788  0.3431534
 -0.13498726 -0.07619487  0.01303179  0.00787166  0.12649597  0.16648136
 -0.01547933  0.02580059 -0.02970212 -0.14732619 -0.15779738  0.25886002
 -0.10909968  0.08264773  0.03955881 -0.33554783 -0.19483721 -0.19930747
 -0.15775886 -0.18208563  0.07969676  0.2608203   0.2649375  -0.25483716
 -0.08679033  0.23979941 -0.00365415 -0.15335815  0.17529866 -0.15398018
 -0.2243441   0.03599187]
[ 0.23606093 -0.26095116 -0.03439265  0.28157765 -0.08274906 -0.20310065
 -0.16470776 -0.1339701  -0.00062857 -0.17037694 -0.04974014 -0.13842995
 -0.20116498  0.06349449 -0.01502761 -0.18956925  0.05979205 -0.05293009
 -0.14360073 -0.32363108  0.06951201 -0.15427761  0.14043564  0.00482084
  0.11222145  0.07138674 -0.08687663 -0.26359707  0.3207368   0.09494119
 -0.06057516  0.05187165  0.32844988 -0.06314187  0.06880789 -0.09143948
 -0.0946872  -0.0302411   0.09629768  0.04194317  0.03439927  0.08863597
 -0.14083205 -0.13824064  0.09153388 -0.13845915  0.11528596 -0.09648527
 -0.07944332  0.16373706  0.03927366 -0.06459355  0.22336152  0.11612497
  0.0209391   0.19347884  0.1419228  -0.2080371   0.09102777  0.23256971
  0.07520184 -0.08633012  0.04035361 -0.08593629 -0.11825461  0.18607767
 -0.0999953   0.23539883  0.11848765  0.21614292  0.00817396  0.0505073
 -0.1104902  -0.20408912 -0.25400624  0.12117869  0.20468584  0.24347438
 -0.01655279 -0.11752571  0.02142547 -0.04204522 -0.14533205 -0.12800106
  0.22593966 -0.3505066   0.00305275 -0.20426968  0.06650391 -0.27953297
 -0.06499782  0.06371106  0.10593813 -0.1189793   0.18209216 -0.11856219
  0.01750365 -0.24042234 -0.11203495 -0.05984699 -0.0257045  -0.12898885
 -0.19617693  0.2027001  -0.11710862 -0.09452108  0.09352778  0.26472932
  0.12740822  0.0233943 ]
[ 0.01507863  0.13115746  0.108919    0.06198245  0.12387952 -0.01719626
  0.02901638  0.0173166  -0.09670785  0.03312655  0.1350651  -0.0754516
  0.1446637   0.00337108  0.01739706  0.01404136  0.02269296 -0.03640714
  0.03985919 -0.10523468  0.20268704 -0.13197897  0.07478189  0.15371262
  0.14821012 -0.04104965  0.21414736 -0.03895838 -0.00771305  0.13345945
 -0.08111669 -0.21099408  0.02666602  0.06180406  0.1284036   0.01840199
 -0.13657962  0.02801789  0.0325036   0.04560665 -0.00620624 -0.17312367
 -0.09865155 -0.14311004 -0.06435093 -0.07190655  0.10289478  0.0444195
 -0.01954347  0.00777857 -0.05272264  0.0335763  -0.16154686  0.02929408
 -0.27041575  0.19664991  0.19685666 -0.07944742  0.08544979  0.17978625
 -0.03228785  0.02510299 -0.0546719   0.03573821 -0.11672492  0.02083102
 -0.14055505  0.04971458 -0.00445772  0.18350306 -0.08560719  0.14556499
 -0.11207827 -0.07251021  0.06982728  0.1392908   0.08582626  0.17279567
  0.0615129   0.06474287 -0.09662813 -0.02995275 -0.00154352  0.01792632
 -0.00541982 -0.05286413  0.18870297 -0.01855861 -0.13463448 -0.06127364
  0.00955584  0.01321788 -0.06813774 -0.15517025  0.09945468  0.07746848
 -0.19661182  0.08890393  0.07993297  0.03419835 -0.12565878 -0.10514572
 -0.00498912  0.01742065 -0.0742227   0.08077954  0.0638528   0.14821118
  0.1132684  -0.06189249]
[ 0.35356885  0.0445473  -0.02872275  0.02269008  0.1625222   0.08992104
 -0.23409963 -0.12497701  0.09594204 -0.15943578  0.14730415  0.08748287
  0.0978983  -0.21589337 -0.13196422  0.21029513  0.1349309   0.03656454
  0.31134915 -0.04351462  0.21058422  0.00351799  0.29990634 -0.04976247
  0.07272076  0.0073225   0.28152838 -0.00735189  0.00824785 -0.09187301
 -0.11109319  0.06647386  0.19396959  0.35479596  0.0402689  -0.14920647
 -0.12253538  0.05428885 -0.10536067  0.03850422 -0.13190386  0.06895461
 -0.15732077 -0.13777785  0.30749214  0.01306024  0.12879315  0.2759865
  0.13829033  0.28383982 -0.12944126 -0.1290685  -0.34179774 -0.17875628
 -0.03924942 -0.21778008 -0.02625981 -0.01202219 -0.05949929 -0.10336371
  0.16298498  0.21227069 -0.03342586  0.12646915 -0.22395915 -0.10091294
  0.13679889  0.17453581 -0.0788198   0.03180619  0.02330823 -0.0076038
  0.00599786  0.09726083 -0.26916474  0.03704239  0.11439867 -0.01435426
 -0.11763274 -0.1591307  -0.03756711 -0.05299808  0.05146624 -0.0966533
  0.07912277 -0.17988372 -0.05514411 -0.06417557 -0.05048137 -0.23538575
  0.2129592  -0.09726528  0.20196496 -0.20885025  0.09001523  0.06155538
  0.14979441 -0.22415456  0.03309818  0.00503691 -0.12814374 -0.16224808
  0.02411927  0.13323788 -0.1390408  -0.05705011  0.16674268  0.29399276
  0.2520512   0.04932817]
[-0.10332252 -0.09939887 -0.05764174 -0.0738681   0.06506637 -0.0225797
 -0.09391944  0.19061345  0.22855474  0.10094827  0.00705074  0.01296061
  0.09021655  0.22451793  0.09851565 -0.07216048 -0.23925778  0.12692271
 -0.0576262   0.17260174 -0.17699893  0.06803032 -0.12301811 -0.19792335
 -0.02846724  0.07289284 -0.18503961  0.18598586 -0.18244454 -0.27651548
 -0.15229483 -0.06834576 -0.2713059  -0.03281168 -0.07421332 -0.09130173
 -0.00533166 -0.12127014 -0.14023824 -0.15947123 -0.11603794 -0.12993659
  0.21182667 -0.10599231 -0.0738328   0.12112956  0.0186634  -0.05963278
  0.08222879 -0.00924226 -0.13081445 -0.04035012  0.0768337   0.16258061
 -0.09277963 -0.01073433 -0.02763184  0.084391   -0.24555251  0.00354138
 -0.08463105 -0.07614438  0.25024864 -0.17234272  0.22644718 -0.07164941
  0.00327173 -0.03210963  0.10986907 -0.0899779   0.0508581   0.06801461
 -0.16683942  0.0432267   0.0322072   0.16969281 -0.14975986 -0.105811
  0.07922202  0.31191325 -0.10344385 -0.30663854 -0.10746577 -0.10707995
  0.00715396  0.10902311  0.07120983  0.19699158  0.12525004  0.2700293
  0.07850694  0.01149321  0.03973917  0.29834157 -0.30806947  0.10550335
  0.00733235 -0.00685819 -0.09146564 -0.2096251  -0.0851918   0.2443629
  0.30960187  0.05623974  0.19664133 -0.03872859 -0.39241478  0.16822295
 -0.07494736  0.03168374]
[-7.58487657e-02 -2.37428442e-01 -5.12365550e-02 -6.73442334e-02
 -3.07595074e-01 -2.75679946e-01 -1.62756339e-01 -9.22249332e-02
 -1.13843419e-01 -2.67634224e-02 -3.09478603e-02  4.33835238e-02
  2.43254185e-01 -8.49434510e-02  1.44412130e-01  1.33268908e-01
  1.14492521e-01  1.06744561e-02 -2.11352766e-01 -1.51593268e-01
  1.41828880e-01  1.51668251e-01  1.93204150e-01 -7.21203536e-02
  2.18759686e-01 -1.00006364e-01  1.24242954e-01 -4.92735254e-03
  1.64992705e-01 -5.34602776e-02 -2.68778801e-01 -4.72317487e-02
  2.02615350e-01  2.00354323e-01 -5.98408207e-02  6.76818863e-02
 -3.10269613e-02  9.71750244e-02  2.94865698e-01  1.22042492e-01
  1.55548543e-01  4.13193628e-02 -1.87675342e-01 -4.39742357e-02
  1.38096720e-01 -1.25159264e-01  6.90840334e-02  1.03144892e-01
 -1.76595822e-01  6.02987036e-02 -4.17930216e-01 -8.47604424e-02
 -7.59163573e-02  4.05879132e-02  6.90551847e-02  2.17506006e-01
  1.82436436e-01 -1.42796338e-02  1.16455168e-01  2.08733767e-01
  1.36174664e-01  2.93057948e-01  7.36250579e-02  1.09729148e-01
 -2.33306941e-02  1.96105018e-02  1.28845885e-01  1.43766627e-01
  2.28542209e-01  2.62584627e-01 -2.18456075e-01  2.77016580e-01
  3.76440473e-02  4.25679609e-02 -1.85855523e-01  3.76670472e-02
  1.97437495e-01  3.04310489e-02  2.91819172e-03 -1.70964835e-04
  4.71518748e-02  6.30500913e-02  1.53879955e-01  1.75138921e-01
  2.19854429e-01  9.82467756e-02 -3.63387652e-02 -8.48663226e-02
 -1.60707876e-01 -3.36220898e-02  1.01620466e-01  5.89082614e-02
  9.80114117e-02 -1.52964517e-01  1.77156106e-01 -9.11587998e-02
  1.65907875e-01  8.29568282e-02 -2.67119020e-01  7.09908977e-02
 -3.24668825e-01 -2.37739325e-01  5.27483448e-02  1.73946500e-01
 -1.28155157e-01  1.69181742e-03  2.71621943e-01 -2.08015308e-01
  1.52854577e-01 -1.58653975e-01]
[-0.11359654  0.03483985 -0.13800716  0.1712245  -0.07084244 -0.09698712
 -0.2713632   0.25221777  0.24273655 -0.03881692 -0.08757848 -0.03164239
  0.12112392  0.08338616 -0.04642998 -0.09216926  0.02213619 -0.05728315
  0.14856379 -0.06293807 -0.00177445 -0.12881781 -0.09404492 -0.28995985
 -0.1289123  -0.13682587 -0.22178975 -0.28768694  0.06033838 -0.0066788
 -0.24784566  0.06799954 -0.0007466  -0.0632947   0.06497227 -0.06524568
 -0.2125881   0.15210913 -0.01013789 -0.11299001 -0.02833004  0.25707102
  0.18790826  0.17839155 -0.11838485  0.14192224  0.00543085  0.08445416
 -0.36303273 -0.19966228  0.11540938  0.06607143  0.07045949  0.08212974
 -0.16010448 -0.14527036  0.14233215  0.12606394 -0.1092645   0.14660017
 -0.09467056 -0.2800334   0.11346548 -0.10165116  0.03253938  0.12240021
 -0.22683528 -0.13557406  0.0730591  -0.21029405 -0.37675548 -0.07704997
  0.00491201 -0.08668567  0.10544775  0.04509971 -0.17688955 -0.28861943
  0.04996873 -0.21846792 -0.04844098 -0.01150395  0.0007032  -0.21345814
  0.04677609  0.2581588   0.09518949 -0.04798737  0.15577118 -0.03900508
 -0.14597562 -0.00249409 -0.13374642  0.12041337  0.05913297  0.25113094
  0.12201048 -0.21874014  0.12936975  0.0177622  -0.14243136  0.09634921
 -0.0059593   0.03174749 -0.02389217 -0.25777492 -0.00521044  0.20086716
 -0.08281331 -0.09401869]
[ 0.24707177  0.0543852   0.33851454  0.17844136  0.07892615 -0.12600698
 -0.06184549 -0.20684445 -0.02810331 -0.05032127  0.063926   -0.18264206
  0.1515159  -0.19727089  0.04231294  0.06865171  0.23354882 -0.04937965
 -0.36890942 -0.0182871   0.20442945 -0.12235148  0.10696295  0.02937345
  0.37545335  0.16229309  0.04193062  0.09703968  0.1507651   0.2560594
  0.08956132 -0.4572204   0.1351905   0.27641946 -0.06347635 -0.04527372
 -0.07270596  0.14476271  0.15850393 -0.03253506  0.40958238 -0.43494058
 -0.28722793 -0.08558741 -0.02502706 -0.16891259  0.06562932  0.04610932
  0.10428186  0.27512795  0.02657646 -0.2308713   0.1566798   0.1143369
 -0.16487016  0.02347173  0.11161567  0.08394902  0.2797315   0.15133663
  0.19158788  0.3633825  -0.13143867  0.05074792 -0.20621485  0.15330537
 -0.04471504  0.16822727 -0.02970122  0.02382456  0.09336016  0.11798677
  0.06015754  0.19710217 -0.19827376  0.01119883  0.26167437  0.28106964
  0.08210719 -0.10078599 -0.21017927  0.10424941  0.27414706 -0.2648843
  0.19090883 -0.27836633  0.18587811 -0.25521845 -0.04046345 -0.08337796
  0.03661003  0.1646885   0.2508536  -0.25947073  0.17391466  0.01221275
  0.11976293 -0.06650792 -0.08394329  0.09821033 -0.02511017 -0.12180942
 -0.09060868  0.20592    -0.16670048  0.00652169  0.3048695   0.22409548
  0.2036604  -0.04871082]
[-0.10989933 -0.07104424  0.04290053 -0.16234554  0.20829545 -0.11960065
  0.08398108  0.08863566  0.2581999   0.02467855  0.04292875 -0.12905797
 -0.08627494 -0.14959683 -0.08883915 -0.03080503 -0.14596105  0.05457472
  0.09203174  0.03332357 -0.19256106  0.10069068 -0.19424064 -0.17058831
 -0.08604707 -0.00185884  0.04069463 -0.09463587  0.13786192  0.02363523
  0.15173805 -0.10707146 -0.2081804  -0.16201322  0.03290022 -0.06858791
 -0.2949014  -0.11798663 -0.03448197 -0.23985735 -0.07149398 -0.03220558
  0.13692048 -0.07662117 -0.10273271 -0.16072604 -0.11687402 -0.04699942
 -0.15626237  0.0567182   0.11224914 -0.12108804  0.27765405  0.15947625
 -0.11308526  0.2287196   0.21168625  0.2061789  -0.17945608 -0.17976603
 -0.08816439 -0.07901899  0.07462946 -0.05903748  0.31090245  0.03468417
 -0.07943622 -0.14149503  0.18361017  0.19232337  0.05381392  0.00893314
 -0.10098386 -0.25857222  0.12409416  0.00545511 -0.12337147  0.06196864
  0.03300432  0.27932295  0.29439047  0.02918072 -0.18448798  0.08776475
 -0.1323594  -0.04912627 -0.05489306  0.36786816 -0.11860743  0.2289121
 -0.14677799 -0.00703977  0.02980018  0.03957148 -0.03768073 -0.1057992
  0.06140587 -0.02600768 -0.00200345 -0.2153255  -0.15921827  0.0553505
  0.0297368   0.11376227 -0.02473731 -0.10326362  0.03443279 -0.14213967
 -0.10236514 -0.19353059]
[ 0.06258191  0.13636588  0.21036209  0.10703887  0.12681717 -0.2766982
 -0.06571123 -0.11100627 -0.02509365 -0.11001818  0.10670079 -0.07656829
 -0.04067191 -0.04905485 -0.12062047  0.10188968 -0.07567441 -0.04979007
  0.04886068  0.11771771 -0.00525981 -0.11248519 -0.00344013 -0.05361975
  0.12804344 -0.05580914  0.20780037  0.15059885  0.03553197 -0.00616049
 -0.09552658 -0.17850155  0.08857892  0.06757072  0.07118808 -0.06182425
  0.03461422  0.0617567   0.09041914 -0.11294176  0.01611136 -0.19453052
 -0.15331349 -0.01608456 -0.2544585  -0.16356443  0.10211804  0.03348429
  0.06237727  0.14608714  0.09212603 -0.01410196 -0.07912517  0.05043844
  0.05431839  0.02322846 -0.03948229  0.1779147   0.01567125 -0.0509941
 -0.06256832  0.01778392 -0.11751702  0.09139253  0.01643425  0.1398299
  0.11280706  0.077203    0.04202248  0.19583853  0.1493009  -0.07817275
 -0.00158453  0.02937857  0.02151987  0.15415272  0.08235724 -0.0297945
  0.05707886 -0.12986541 -0.21048366  0.07790925  0.03074086 -0.1624583
  0.04228683 -0.205183    0.14941414 -0.18418615 -0.14973451 -0.07151793
 -0.20267732  0.10314884 -0.02669177 -0.1990998  -0.05667161  0.0275598
 -0.02045064 -0.02396646  0.06429586  0.2083145   0.06847977 -0.12563069
  0.12405237  0.04764304  0.01134856 -0.08635598  0.21370013  0.24061157
  0.00778109 -0.05532287]
[-2.61127740e-01  1.18257269e-01 -4.25462753e-01 -1.13982663e-01
 -3.67800742e-01  2.24554330e-01  1.38464451e-01  3.90788734e-01
 -2.29285598e-01 -4.58156168e-01  3.28320265e-01  1.38514221e-01
  1.77478250e-02 -9.57374126e-02  2.80451596e-01 -2.55410582e-01
 -1.99742049e-01  2.26460353e-01 -1.97057370e-02 -1.91253796e-01
 -5.42899743e-02 -1.27770096e-01  6.10050629e-05  8.89573321e-02
 -4.71625268e-01 -2.66626719e-02  5.78664914e-02  1.68624789e-01
  7.50385299e-02 -1.78007096e-01  1.03361949e-01 -6.04993477e-02
 -3.68995741e-02 -3.27971280e-01 -1.65502369e-01 -2.07863584e-01
  2.73527224e-02 -5.51551878e-01  7.05533624e-02 -1.72579680e-02
 -3.46663524e-04 -2.66016692e-01  1.23496033e-01  5.18917926e-02
 -2.85777003e-01  2.61165760e-02 -1.57544687e-02 -1.26246050e-01
  5.62212840e-02  1.72225147e-01 -3.28268558e-01  3.15670520e-01
 -9.86619815e-02  1.08626530e-01  3.76929224e-01 -5.20084500e-01
  1.66047245e-01  2.51550764e-01 -3.39040816e-01  1.91455483e-01
 -2.15643451e-01 -4.41367686e-01  1.35175705e-01  1.56771559e-02
 -7.35484809e-02 -7.19637126e-02  5.93173578e-02  1.21308818e-01
  1.30532771e-01 -1.61347054e-02  2.13529348e-01 -4.43601370e-01
 -3.22609730e-02 -1.31666036e-02 -1.29677519e-01 -8.80778730e-02
 -1.01170897e-01 -2.10304335e-02 -3.45504940e-01  2.65460789e-01
  2.31789917e-01  1.03025883e-01  3.57207060e-02  1.30418524e-01
  7.89204091e-02 -4.98750545e-02 -3.37424222e-03  3.89716029e-01
  4.84896600e-02 -2.76784003e-01 -3.51004392e-01 -7.40154926e-03
  3.96229476e-02  2.78842062e-01 -4.70237583e-01  3.56766999e-01
  1.47436544e-01  3.07934493e-01 -2.71516293e-01 -1.00917079e-01
  2.73857743e-01 -1.00647621e-01 -1.82778195e-01 -2.20291674e-01
  1.17877305e-01 -8.51601828e-03  1.19978495e-01 -1.18598565e-01
  8.32460076e-02  2.75698572e-01]
[ 0.32918662  0.11343384  0.04959048  0.12599736  0.15953028 -0.23634012
 -0.03221958  0.02865708  0.02338645 -0.1169977   0.15606314 -0.09719668
  0.05877516 -0.13776161  0.07354674  0.04999845  0.17555611  0.13177457
  0.06294288  0.03265953  0.23418581 -0.07834009  0.24102834  0.15922564
  0.35842174 -0.01738032  0.17412563 -0.0396063   0.00345967  0.24088623
  0.03248676 -0.46990615  0.3179855   0.17328179  0.09213073  0.19663389
  0.06071891  0.19625488  0.08076621 -0.04680052  0.35923538 -0.52874637
 -0.29290804 -0.18528299 -0.06233611 -0.1671002   0.20489338  0.21580808
  0.24019206  0.2109892   0.04106202  0.06500532 -0.06210095 -0.09622511
 -0.19282618  0.01904685 -0.05880819  0.18226227  0.2949411  -0.0461676
  0.25832936  0.33132356  0.0782517   0.09161688 -0.33828253  0.14960538
  0.0261065   0.19796002  0.07052338 -0.05663208  0.07579955  0.05171833
 -0.0832757   0.0106977  -0.03241385 -0.05581846  0.26794356  0.26499408
  0.22213386 -0.03895279 -0.13234483  0.2061926   0.21163353 -0.17128256
  0.25178108 -0.13777386  0.01571254 -0.11443914 -0.02321731 -0.1786225
 -0.08869939  0.2110633   0.21757181 -0.16752444  0.08415171  0.0640062
 -0.04956618  0.08945135  0.18803966 -0.01481698  0.01392056  0.06636286
 -0.01732475  0.11024939 -0.09571069 -0.01330426  0.18217398  0.29553664
 -0.03649894  0.20307444]
[ 0.13400505 -0.13444269  0.23328093  0.18383032 -0.03665754 -0.09866806
 -0.02787454 -0.13514014 -0.04904761 -0.0322434  -0.10614175 -0.04408148
 -0.18595028 -0.00066306  0.11983941 -0.2501066  -0.12456674  0.03219981
 -0.16226462  0.00642111  0.06215973  0.17025511  0.2412865  -0.1654974
  0.01002774 -0.2567207   0.23287225 -0.10389319  0.06120545  0.17636499
  0.18049712 -0.05103013  0.20281576  0.25659105  0.33230764  0.09817702
 -0.00428313  0.02552892  0.2517085   0.25701183  0.11385683 -0.04867814
 -0.10391829  0.19558372 -0.20015994 -0.0790654   0.03521015  0.12697975
 -0.11972597  0.2027819   0.30553213 -0.1296478   0.21869949  0.26552796
 -0.11047513  0.13411456  0.06621292 -0.17002298  0.12212781  0.05300927
  0.2504276   0.18943802  0.26192376 -0.06697835 -0.11422202  0.14016546
  0.04543423 -0.08664469 -0.09837876  0.08819719  0.08852191  0.20602591
  0.09142917  0.05782945 -0.22911689  0.01024097  0.09876639  0.2613342
  0.08432695 -0.17129286 -0.09399803  0.11161931  0.23370332  0.2832946
  0.06018737 -0.06567057  0.21517558 -0.06564739 -0.22223897  0.18906748
 -0.03475788  0.3053245   0.17030017 -0.05344666  0.0688898  -0.14537938
 -0.04686324  0.01421931  0.11738176  0.10201605  0.22755012 -0.25258008
 -0.23279177  0.11211707 -0.12721291 -0.04893596  0.19973744  0.24674636
 -0.06838863 -0.13316159]
[-0.27933708 -0.078582    0.10917109 -0.153312   -0.04136121 -0.17430317
  0.02445415 -0.00140201  0.33012694  0.1847006   0.16746095 -0.24764137
 -0.2678966  -0.07784595  0.11654681 -0.03261742  0.15905118  0.33434775
 -0.07784232 -0.14518707 -0.04596836  0.07678758  0.05360453  0.08475397
  0.07353805  0.29018348 -0.17869897 -0.11778323  0.00056888 -0.07686619
  0.22267607 -0.37417322 -0.06565957  0.12614314 -0.01639812 -0.3829603
  0.09637633 -0.10301623 -0.22626965  0.08037705  0.13965805 -0.26293552
 -0.10648912  0.01879071 -0.17101257 -0.1077413   0.08309595  0.03069035
  0.19940071  0.14244598  0.17493568 -0.09022529  0.19830757  0.1870928
  0.17109406  0.14092281  0.20703255 -0.20962699  0.02788634 -0.01742779
 -0.32631     0.05906795 -0.18818036  0.15404464  0.2134677   0.16444391
 -0.02704067 -0.07922999  0.18170176  0.06632882  0.19428228 -0.15371798
 -0.11457981  0.20821045  0.15927398  0.01587253  0.05682135  0.2037468
  0.13632889  0.31476527  0.10376664  0.14957875 -0.03047109  0.07660858
 -0.1246747  -0.01266784  0.05109008  0.18676372 -0.08373277  0.2801928
  0.07651034 -0.18413769  0.05864808 -0.03051056 -0.08382244 -0.05743228
  0.24245453  0.01429517 -0.09797839  0.02824266 -0.14587343  0.29795313
  0.06844708 -0.13418156 -0.2063298   0.1679555  -0.24524736 -0.2523292
  0.01048678  0.33064592]
[ 0.18633036 -0.07328173 -0.1463382  -0.05916914  0.14291556 -0.22949417
 -0.0664292  -0.12691645  0.20389587 -0.20358598 -0.0177822  -0.06403866
 -0.1375476  -0.5063987   0.09517728  0.20829542 -0.26663488  0.06033116
  0.2708673  -0.34009075  0.10185321  0.13405704 -0.2801258   0.00474684
 -0.3050326   0.0609044  -0.00639149  0.1492295  -0.20812897 -0.3305267
 -0.1297519  -0.28077725 -0.18703602 -0.12207893  0.17681982 -0.03489196
  0.02745504 -0.27741307 -0.15411127  0.2976685  -0.15065725  0.02732775
  0.25629672 -0.2631136  -0.2702618  -0.07794532 -0.16360924  0.20025136
  0.01259344  0.04104502  0.3250307   0.42171556 -0.29656777 -0.00378494
  0.05724477  0.23838034  0.00743603 -0.12744394 -0.3377629  -0.23695467
  0.1049247  -0.21995614  0.08983126  0.03666506  0.27659926  0.32839113
  0.06042982 -0.15454395  0.1770899   0.26933733  0.0389055  -0.22657508
  0.06954757  0.13751864  0.3926739   0.24452615 -0.37547937  0.0020539
  0.02338851 -0.02258915  0.18221645  0.14054817 -0.39460665 -0.09150834
 -0.14487684  0.075147   -0.25504035  0.10663059 -0.13485791  0.16660078
 -0.4619472   0.08854299  0.13234146  0.1529746  -0.51955914 -0.02424059
 -0.13364317  0.2714513   0.06040093  0.08444697  0.1870565  -0.10879979
  0.16822973 -0.10696741 -0.10751447 -0.2804233   0.20254913  0.11244365
 -0.2096726  -0.00542169]
[ 0.1468331  -0.19431888  0.02990388  0.02516788 -0.04668681  0.03418654
  0.0014607  -0.01080731  0.18766357 -0.00761628 -0.06233687 -0.00310261
 -0.1447571  -0.03277681 -0.07490962  0.06330504 -0.03669145 -0.00910831
 -0.21855706 -0.11517639  0.4023279  -0.09585869 -0.08435015 -0.03597996
  0.2285385   0.09889252  0.18493529  0.11824474  0.19802034  0.05512992
  0.02854566 -0.19978814  0.32695404  0.21475911 -0.13712797 -0.15518217
 -0.19752407 -0.1930452   0.05361241 -0.2888874   0.09569929  0.06468055
 -0.12741049 -0.02532844  0.07154202 -0.20244801  0.19449621  0.26912594
 -0.06253721  0.1339944  -0.49042982 -0.10561943 -0.19703873 -0.10229591
 -0.01681481  0.06092088  0.35729316 -0.15244168 -0.14323387  0.0316498
  0.20151329  0.14003523 -0.03225014 -0.16033249 -0.24735655 -0.10627939
  0.14533487 -0.30552998  0.26727393  0.11742675  0.20071796  0.2391218
  0.1844482   0.04688084 -0.42127725  0.3846669   0.26876572 -0.44343272
  0.04852184 -0.10126103 -0.05409642  0.08582865  0.12444264  0.04399031
  0.1198932   0.09334799  0.26247537 -0.16012874 -0.04749214 -0.01305404
  0.00385628 -0.01368756  0.25874963 -0.19651005  0.20859258 -0.11472142
  0.03963541 -0.29110187 -0.2423201   0.21586958 -0.26107407 -0.32060334
 -0.29879692  0.12111422 -0.14115831  0.09953432  0.12427846  0.03319167
  0.23179361  0.18013151]
[ 0.13846998 -0.15094277 -0.11562562  0.20446059 -0.25788507 -0.15904787
 -0.29639313  0.06128916 -0.35374618 -0.22012813 -0.24067558  0.1723551
  0.02348028  0.0734247  -0.0317069   0.21743327  0.22000518 -0.1098495
 -0.04289019 -0.11292674 -0.20207398 -0.03289108 -0.28583357 -0.08691924
  0.17668009 -0.12134369 -0.28893134  0.09952147 -0.2760134  -0.05242341
 -0.11451248  0.35157347 -0.36677524 -0.10794263  0.16016033 -0.05972217
  0.0402503   0.34952733 -0.07907228 -0.11188529 -0.2936537  -0.01177077
  0.39937684 -0.0402339   0.29413414  0.21418633 -0.06309905 -0.26484233
  0.17090431  0.2892458  -0.12680292 -0.17286536 -0.14371276  0.0042718
 -0.18952306 -0.3886935  -0.34653488 -0.11275794 -0.22439075  0.02968083
 -0.2544752  -0.15750767 -0.3601866  -0.35337117  0.11976841 -0.1257737
 -0.40978545 -0.05359788 -0.43875456 -0.3203759  -0.25638726  0.09013145
 -0.21706684 -0.16711743  0.13803466 -0.28868186  0.05095925  0.06460265
 -0.04278979 -0.17269334 -0.17843959  0.06085216 -0.00989096 -0.30892366
 -0.11103149 -0.22580983 -0.24253798 -0.38756666 -0.15553471 -0.23633905
 -0.13333143 -0.35680687 -0.09557974  0.30339128 -0.04524367 -0.07548729
 -0.2995878   0.13045473  0.08667859 -0.34033057  0.0162634  -0.38146812
 -0.07777017  0.11913192  0.08374082 -0.12297057 -0.07600328 -0.30849725
  0.16906334 -0.10268327]
[-6.70422390e-02 -5.46471924e-02  2.82210886e-01  1.19950123e-01
  2.21434265e-01  1.72221720e-01  1.50065973e-01  2.96949446e-01
  8.93981680e-02  1.05932623e-01  3.40352952e-01  2.01020151e-01
  1.62091300e-01  7.44022280e-02 -2.98188031e-01  1.75386697e-01
 -1.61550835e-01  1.68002367e-01  1.91576883e-01  2.16286287e-01
 -1.07074164e-01  7.56094679e-02 -7.06065074e-02 -5.95339611e-02
 -1.07428439e-01  1.97481722e-01 -1.78680122e-02 -5.08679211e-01
 -1.31176338e-01 -1.62695691e-01  5.74422404e-02  3.86724882e-02
 -9.13591236e-02 -3.95282023e-02  1.59990117e-01 -1.37106866e-01
  2.16528445e-01 -1.76320538e-01 -7.71043589e-03 -2.91414987e-02
 -3.32348704e-01  4.19653922e-01 -7.88849220e-02  1.19650736e-01
  3.45463753e-02  2.00245708e-01 -2.94973969e-01 -3.04233225e-04
 -3.54498059e-01 -1.09455884e-01  4.82786633e-02  3.07451725e-01
  4.48612981e-02  1.23147897e-01 -1.25777364e-01  2.39036769e-01
  6.14174828e-03  1.52532354e-01  2.52556920e-01  1.51660619e-02
  1.15816228e-01 -2.20297053e-01  1.47832572e-01  8.85387659e-02
 -4.81997877e-02 -1.63491994e-01 -4.51832898e-02 -4.45530295e-01
 -2.66811788e-01  7.45408535e-02  3.91773656e-02 -1.90636560e-01
 -4.26673025e-01  1.12940803e-01  2.43170410e-01  5.75774573e-02
  1.73093006e-01 -4.52625118e-02  1.14998966e-01  5.12547493e-01
  1.05758552e-02 -3.39373350e-02 -1.19993433e-01 -1.03277024e-02
  6.15205131e-02  2.34105960e-01 -5.17801680e-02  2.34971017e-01
  3.06089699e-01  2.73027688e-01  7.11293072e-02  1.50081709e-01
  1.19505465e-01  1.18062854e-01 -2.76292358e-02 -2.63799250e-01
  6.12077583e-03  2.71960422e-02  3.87650095e-02 -1.39874846e-01
  5.43927066e-02  4.50134985e-02  1.99073121e-01  8.98148417e-02
  1.38949305e-01 -2.37341449e-02  8.85423794e-02  1.46408558e-01
 -5.00891991e-02  4.04599123e-02]
[-0.25003538  0.18650746  0.1010631   0.2964847  -0.09072749  0.11228204
 -0.13698876  0.15000208 -0.13435607 -0.02512508  0.11076447  0.08569859
  0.14410706 -0.03007897 -0.11138664 -0.17627296 -0.16345806 -0.17319392
 -0.10056916  0.1689315  -0.22286713 -0.07358561 -0.04617709 -0.09777432
  0.12316222 -0.23612013 -0.01706509 -0.2701524  -0.1602905  -0.11523076
 -0.26539633  0.27910003 -0.03700689 -0.25873324 -0.37568408  0.15478693
 -0.02809902  0.05821408 -0.11478932 -0.0449671  -0.25217253  0.16540141
 -0.10205038  0.14607766 -0.03479947  0.26850045  0.12833102  0.1829271
 -0.12385464 -0.4172476   0.20555632 -0.06791357  0.19130543  0.06360097
 -0.31376687  0.15463805 -0.21212995 -0.11010835 -0.0726234   0.26685378
  0.10059512 -0.17656542  0.06509468  0.01775255  0.18479255  0.05091904
  0.04948231  0.33084655  0.07113498  0.05935913 -0.34828907 -0.01305368
  0.25488546  0.08014113  0.28393435 -0.12611336 -0.03958193 -0.16469158
  0.02180604  0.05075591 -0.05738574  0.07345239 -0.01599504  0.17221543
 -0.19998498  0.04418492  0.07167977  0.05952433  0.3575859   0.02931635
  0.42639348 -0.14258684 -0.25750867  0.18795966  0.23875648  0.21020725
 -0.12433641  0.0957692  -0.2086049   0.08883232 -0.08430307 -0.12142356
  0.15506208  0.16967957 -0.12068686 -0.13770473  0.13879496  0.13547719
  0.08438566 -0.23076099]
[ 0.2844332  -0.26477093 -0.6376034   0.20344737 -0.03577784  0.09932235
 -0.15761226  0.06690293 -0.04451332  0.12196666  0.07142045  0.0874082
  0.25605568  0.20706198 -0.32720283  0.26484907 -0.28825527 -0.19451663
 -0.2233029  -0.10538367 -0.1901902  -0.3607845  -0.41803277 -0.03584312
 -0.20487884 -0.32029453 -0.27952877  0.24169952 -0.1886029  -0.29575035
 -0.41737446  0.36446282 -0.12691236 -0.30798092 -0.51149005  0.13094707
  0.18175703 -0.00795812 -0.1619436   0.26853722  0.01364691  0.17349456
  0.07767862 -0.3869372  -0.22624697  0.43397155  0.00168426 -0.09431995
 -0.1798916  -0.25102755  0.13099532 -0.3649562  -0.2611678  -0.08959433
  0.3386351  -0.12670982 -0.3598499  -0.5254977  -0.19332589  0.27209756
 -0.24150224 -0.02686606  0.06940202 -0.08015347 -0.21461113  0.19435878
  0.1764192  -0.14623289 -0.19004561 -0.12849018 -0.45616135 -0.43604082
 -0.12299543  0.05000394  0.25877273 -0.34822476  0.14445364 -0.3405951
 -0.16738938 -0.06429154  0.24872515  0.20578471  0.34675303  0.03602487
 -0.37925056  0.09132749 -0.05287663  0.09113786  0.48594493 -0.08592416
  0.24278405 -0.00891509 -0.33287343  0.35832804  0.4367338  -0.03248988
 -0.01076819 -0.23695138 -0.36830357 -0.09594463 -0.13321543 -0.13553005
 -0.08251643  0.07687626  0.13781114  0.18491127 -0.04061179  0.08665393
 -0.03804771 -0.3746695 ]
[ 2.74824202e-01  4.79444340e-02  3.13741863e-01  6.85796291e-02
  3.46816599e-01 -1.58156216e-01  1.77362680e-01  1.40509363e-02
  5.45202494e-02 -1.01617640e-02  1.63920820e-01 -5.59551381e-02
  2.95086410e-02 -2.24351361e-02  1.21750668e-01  8.23997706e-02
  2.23836303e-01  1.58080563e-01 -3.14260721e-02 -3.71051133e-02
  2.25156978e-01 -2.61237055e-01  3.50018144e-01  1.10577308e-01
  3.15988004e-01  7.57148415e-02  2.77122781e-02 -1.13250669e-02
 -3.85454297e-03  4.87613678e-02 -2.98544496e-01 -5.38151145e-01
  2.27388799e-01  1.28694534e-01  6.51458055e-02 -6.91244006e-02
 -6.95777088e-02  2.92110950e-01  2.00199932e-01 -2.36370459e-01
  4.17472661e-01 -5.19114614e-01 -2.65771121e-01 -1.19178444e-02
  1.16917133e-01 -7.79087543e-02  1.18524447e-01  3.98913436e-02
  2.02120513e-01  2.55739003e-01  6.71140328e-02 -6.20297901e-02
  2.05718409e-02 -3.80215883e-01 -4.21496481e-01  1.58662111e-01
  1.69651046e-01 -3.10395192e-02  1.28203094e-01  1.57153338e-01
  6.86070248e-02  2.43185505e-01 -2.61341304e-01  1.74670309e-01
 -3.07402194e-01  9.50880870e-02 -1.28218606e-01  2.16182873e-01
  8.62993822e-02 -4.35934542e-03  4.79911938e-02  1.58455685e-01
  1.15359247e-01  9.60390717e-02  1.63205229e-02  1.37706250e-01
  1.40629694e-01  1.58846065e-01  1.59862831e-01 -4.81982628e-04
  5.36590861e-03  6.68251812e-02  3.03555161e-01 -2.57431269e-01
  9.34697837e-02 -3.44737917e-01  1.07695736e-01 -2.48991534e-01
 -2.31871620e-01 -9.75518487e-03  1.01831436e-01  9.56144333e-02
  2.34744594e-01 -2.13644236e-01  6.51054606e-02  1.64251253e-02
 -1.06945083e-01  2.04305481e-02  1.94846198e-01  2.21145019e-01
 -2.33520165e-01 -3.15016121e-01 -7.01206028e-02  2.07719892e-01
 -9.12459418e-02 -1.95950061e-01  2.21328229e-01  3.67240757e-01
 -3.72111239e-02  1.80124372e-01]
[ 0.19654056 -0.26954424 -0.19269352  0.26049092  0.21624419 -0.07089167
 -0.0895554  -0.16816728 -0.13418865 -0.04612681  0.03524922  0.09117217
  0.10156684 -0.16906309 -0.01612552  0.21910812  0.19368395 -0.0653856
 -0.08942138 -0.22392309  0.2834872   0.03397126  0.3165712   0.23547934
 -0.11148014  0.10580516  0.25325862 -0.10268051  0.13452911  0.19942547
 -0.02735537 -0.00731917  0.23023725  0.32899788 -0.03652043  0.18516421
 -0.13211912  0.00124332  0.10753082 -0.12032034 -0.03014301 -0.0840285
 -0.33015287 -0.00946817  0.10501257 -0.12176252 -0.13103345  0.31319955
  0.11171129  0.01548596  0.02342024 -0.10903524 -0.02772902 -0.01487241
 -0.09515524 -0.13269064  0.19058521  0.06218729 -0.18160133  0.07104076
  0.2907189   0.2977929  -0.08456483  0.11124555 -0.1633007  -0.06932611
 -0.10391677  0.08218867  0.13548188  0.20588984  0.07076889 -0.01153522
 -0.11656221  0.05266375 -0.11922084 -0.06078555 -0.04128869 -0.11361045
  0.2628869   0.03761315  0.04201629 -0.03305082 -0.11369875  0.14361663
  0.21573433 -0.23671933  0.15395425  0.07288953 -0.12670982 -0.16222288
 -0.02578524  0.06030817  0.10002325 -0.29183295  0.16792044 -0.01044187
 -0.00551925 -0.019967   -0.05577421  0.1209268  -0.18204305 -0.13317494
 -0.09669725  0.16983499 -0.16601555 -0.11629068  0.25923914  0.17219391
  0.24138284 -0.01604406]
[-0.16775356  0.39663026  0.11181339  0.15220815  0.15015748 -0.12925339
  0.07393231  0.07983146 -0.03179761  0.11125407  0.05309394 -0.13883768
 -0.10443147  0.34431258 -0.04420803  0.12065594  0.2771608  -0.05993526
 -0.22961202  0.22220986  0.01522489 -0.01112717  0.05179091 -0.27040327
 -0.1767657  -0.02457583 -0.11683412 -0.5456406   0.05129202  0.30723298
 -0.11650994  0.12070451  0.03228028 -0.22175193  0.196207   -0.06465419
  0.18397008  0.06093442 -0.08145733 -0.1718781  -0.03488112  0.04194754
  0.22083373  0.35511917  0.07665393  0.17636392  0.03019101 -0.0621108
 -0.0253375  -0.32342133 -0.08327769 -0.02451164  0.05310181 -0.24719349
 -0.139036    0.11637361 -0.09305275  0.07443637 -0.19737977 -0.20716286
 -0.20168586 -0.24299446  0.08678714 -0.14625542  0.13839631 -0.03591676
 -0.11792231  0.2251227  -0.1447989  -0.10469882 -0.21309818  0.1832568
 -0.00581879  0.068492    0.120985   -0.12475481 -0.06940569  0.2972598
 -0.23540874 -0.03519009  0.0290347   0.11360033  0.2714465  -0.2026332
 -0.00924022  0.37911388 -0.14341423  0.08007021 -0.19448048  0.08058316
  0.2702441  -0.2715516  -0.14209202  0.2994253  -0.16994025 -0.05870539
 -0.03580968 -0.1841729   0.02457817 -0.07083451 -0.10001128  0.24038905
 -0.20399445 -0.08237011 -0.20568693 -0.08212166 -0.10077946 -0.05334845
 -0.22384688  0.10395428]
[ 0.14665079  0.14496998  0.23576805  0.1441497   0.0383494  -0.1135645
 -0.06653298 -0.06303352  0.07142118  0.09164557 -0.14310962  0.13500133
 -0.21682073  0.11082754  0.13352989 -0.22110969 -0.21120498 -0.23771295
 -0.03944668 -0.11993939  0.2499082   0.22451653  0.27794722  0.02296113
  0.01423225 -0.00719459  0.05055631 -0.22954744  0.2431258   0.26501217
  0.29769495 -0.16583459  0.05567062  0.14693636  0.01941573  0.2662769
 -0.0495714  -0.00047877  0.04693569  0.11311612 -0.04106508 -0.11305895
 -0.13476375  0.29622704 -0.06456611 -0.02658414 -0.13386986  0.0785687
 -0.12294571  0.20775859  0.2935804  -0.06038886  0.3239147   0.21415263
 -0.09710039  0.15721259  0.24918957 -0.09768006  0.19457915 -0.05957915
  0.11131065  0.29430813  0.30084893 -0.07838213 -0.27575392  0.02732518
  0.04210152  0.06818149 -0.16439508  0.01766221 -0.0626468   0.11033951
  0.12380549 -0.15280496 -0.04837578 -0.0221165   0.16908285  0.13948058
  0.00661845 -0.15047173 -0.08235436  0.21764837  0.00130253  0.3244566
  0.19734855  0.00974951  0.02381499 -0.07047707 -0.0662981   0.11763802
 -0.04236016  0.23196197 -0.00321035 -0.11927253  0.08090825 -0.04078283
 -0.10177162  0.0338303   0.22434264  0.05865912  0.00251688 -0.02567619
 -0.209027    0.12157669 -0.15289572 -0.1028378   0.09796251 -0.12351268
  0.08361546 -0.15203787]
[ 2.36807447e-02  6.39661923e-02  2.64678411e-02 -3.08166385e-01
 -3.07912678e-01  2.08664432e-01  1.31942704e-02 -1.02480408e-05
  9.04205143e-02  3.31857085e-01  1.02203503e-01 -4.16698344e-02
 -3.66615266e-01  2.82491654e-01  2.67054904e-02  2.21660674e-01
  1.88605636e-01  9.67584550e-02  2.55533934e-01  2.99690843e-01
  6.29246458e-02 -2.59374499e-01 -1.86246470e-01 -1.35304332e-01
 -1.33526698e-01  3.09702158e-01 -3.23289037e-01 -2.24796876e-01
 -3.04753557e-02  4.08607088e-02 -1.92984700e-01  6.87112520e-03
 -2.97749192e-01 -2.71115303e-01  2.27762088e-01 -1.20014325e-01
  1.15545206e-01  1.51428819e-01 -2.33702380e-02 -6.84964880e-02
  2.26583481e-01 -1.37575567e-01  1.79015949e-01  2.64108896e-01
 -1.20861217e-01 -8.31819547e-04  1.61645059e-02 -1.61608279e-01
 -1.82006866e-01 -1.23489387e-01 -3.08889598e-01  1.71986610e-01
  2.97805723e-02 -1.94295153e-01 -1.48098335e-01 -9.95026901e-02
 -6.55702874e-02  6.56392984e-03  5.60343824e-02 -1.10555157e-01
  8.09313953e-02  1.06003135e-02 -3.88285190e-01 -2.33987235e-02
  2.96178788e-01 -2.22804934e-01  1.44341245e-01 -3.97731721e-01
  1.76841877e-02 -9.36011672e-02 -1.47445112e-01  5.48922569e-02
 -5.44325355e-03 -2.06540257e-01  3.44735116e-01 -9.64681953e-02
 -1.92177206e-01 -2.92407405e-02  1.40509903e-01  1.04949303e-01
 -3.03107023e-01 -3.92942876e-02 -2.31166556e-01  1.21520571e-01
 -3.48672599e-01  2.91968644e-01 -1.63022429e-01 -1.58287808e-02
 -3.84332120e-01  2.00202242e-01 -4.12011176e-01  2.39451081e-02
 -3.34984601e-01  1.03097863e-01 -1.15029719e-02 -1.96085349e-01
 -2.99462862e-02 -2.16946378e-01  1.79528788e-01 -8.22808668e-02
 -2.14055389e-01  2.98484474e-01 -1.64984185e-02 -1.35441810e-01
 -8.74689221e-02 -6.68222979e-02 -2.69445240e-01  2.14381590e-02
 -3.92137803e-02  2.62088533e-02]
[-0.21576919 -0.43714565 -0.16064297 -0.2889643   0.11285803  0.15789808
  0.14760202  0.10010273  0.44572124 -0.37087446  0.05043127  0.00194532
 -0.13180178 -0.03562357 -0.15034951 -0.1450464  -0.27396053  0.23058134
  0.13144073 -0.2299815   0.16855226 -0.213904   -0.09164502  0.12862614
  0.05682336  0.37282634  0.16078076  0.12458356  0.00292829 -0.32734892
  0.07865468 -0.15079512  0.04143949  0.0293443   0.08485128 -0.04030401
  0.15783651 -0.20382586 -0.17533769 -0.14723834  0.116854   -0.16854514
 -0.10097005  0.04118636  0.03254296  0.02993591  0.13778721  0.14099653
  0.00110971 -0.00631622  0.13871168  0.12485148  0.22956292 -0.03740003
 -0.17242922 -0.31214517  0.18173057  0.13587888 -0.28443074  0.04773367
  0.19612359  0.08136937 -0.09032317  0.100287    0.05037954 -0.40993488
 -0.06288239  0.1926084   0.4204515   0.18996675  0.0443294  -0.41091466
 -0.10418331  0.3407955   0.17733234  0.38379455  0.11787479  0.14247258
  0.29178432  0.17662275 -0.26895496  0.06334998 -0.37027535 -0.16939625
  0.16988099 -0.32022828  0.29704368  0.1049914  -0.33208814 -0.22587526
  0.3878425   0.11405376  0.22901933  0.17184398 -0.51751     0.2122585
  0.03076385  0.18465932 -0.20344917 -0.08261178  0.09511623 -0.03314131
  0.10368951 -0.201663    0.09774714 -0.10733929 -0.10133952 -0.00801722
  0.23182678  0.17929524]
[ 1.12620048e-01 -2.15689003e-01 -1.86317697e-01 -7.49805123e-02
  3.13091815e-01 -1.48898304e-01  1.57738589e-02  3.32911164e-02
  2.96663612e-01  8.36696476e-03  2.20780075e-02 -1.58662722e-03
 -2.87520409e-01  2.15938985e-01 -9.29694548e-02  3.99204087e-04
  3.54951657e-02  1.59306079e-01 -1.29988521e-01 -1.03083529e-01
  1.88049465e-01  1.63172498e-01 -3.68540101e-02  2.40505174e-01
  1.03612043e-01  1.41518518e-01  1.79984823e-01  1.77911848e-01
  3.91722955e-02 -3.44113335e-02 -2.80267715e-01 -1.66682452e-01
  2.00298101e-01  1.53392121e-01 -5.70475645e-02  8.87446627e-02
 -7.92637467e-02 -1.22102380e-01 -1.45805553e-01 -1.08484238e-01
  8.66391510e-02  1.39169857e-01 -1.09412558e-01  2.20510866e-02
 -6.82598693e-05  1.68921929e-02 -1.39567360e-01  1.46580294e-01
  1.30545497e-01  3.43572870e-02 -1.76347308e-02  2.86634150e-03
 -3.75330657e-01  5.12093604e-02  1.03370279e-01  2.53204495e-01
  4.06766981e-01 -5.88039197e-02  4.20209803e-02 -1.72480002e-01
  2.45512114e-03  2.04879388e-01  1.06604353e-01  1.18392020e-01
 -1.14561655e-01  6.19089268e-02  1.14000618e-01  8.30141529e-02
  2.26422817e-01  2.30238065e-01  1.93246260e-01  5.37592471e-02
  6.17586039e-02  2.37632677e-01  1.14328817e-01  2.00813696e-01
  1.04962392e-02 -1.78056613e-01  3.14461663e-02  1.11710154e-01
 -1.86364204e-02 -1.73386902e-01 -7.03925118e-02 -9.95310172e-02
  1.78073421e-01 -1.51119560e-01  1.08944029e-01 -5.61474115e-02
 -4.36415561e-02  1.34904590e-02 -7.27992728e-02 -6.20782003e-02
  3.25263649e-01  5.51643083e-03 -1.34438664e-01 -1.83792219e-01
  1.01763576e-01  2.51610160e-01 -2.71735847e-01  9.13224518e-02
 -3.52692381e-02 -9.06970277e-02 -2.12147739e-02 -8.99378061e-02
  8.06018338e-03  2.67621398e-01 -3.09435371e-02  2.24673644e-01
 -9.56454799e-02  2.28006050e-01]
[ 0.16886492 -0.00995139 -0.24020287 -0.23352453  0.16621926 -0.23332559
 -0.0491122  -0.08268636  0.0309662   0.21466231  0.04798138 -0.14219727
  0.2017246   0.18926868 -0.03939384  0.14616217 -0.26877114  0.31837395
  0.18833686 -0.1709255  -0.02235569 -0.14132804 -0.05301167  0.11202832
 -0.12852149  0.12943177 -0.0462929  -0.04372587 -0.18631361 -0.15799043
 -0.3072176  -0.01088005 -0.20034978  0.16677742  0.20321539 -0.20214815
  0.06413722 -0.05491783  0.00090045 -0.09367897  0.19022769 -0.06002358
  0.08499239 -0.33182305 -0.04923095  0.116097    0.00750972 -0.0586957
  0.04244643  0.02470736 -0.20050046 -0.09776846 -0.30664393  0.11759654
  0.39765763 -0.03628368 -0.02316724  0.17803325 -0.19997779  0.1504652
 -0.06367903 -0.16797903  0.1391932   0.06915428  0.13299654 -0.21831413
  0.1434747  -0.11706885  0.05507188 -0.14714462  0.15212291 -0.12487146
  0.05124277  0.13483553 -0.09354822  0.33675706  0.10841773  0.05475302
 -0.14195882  0.21948129 -0.16416277 -0.2926358  -0.0335537  -0.19384718
 -0.08256263 -0.3144187  -0.3536461   0.16713381  0.19892873  0.17533585
 -0.4684671   0.14885326  0.0107714   0.08944879 -0.12779324  0.10092147
  0.04071778  0.0117075  -0.05887241  0.02644601 -0.23764187  0.18370305
  0.05509873  0.20127411  0.22018397 -0.02199627 -0.00250557 -0.23825796
  0.13759556 -0.105157  ]
[ 0.07481458 -0.04235224  0.05704385  0.15769404  0.03477148 -0.1404067
 -0.07450397 -0.09379053  0.01716569  0.10577916 -0.0258335   0.11357413
  0.02257426  0.07468794  0.16467606 -0.03275327 -0.20179349 -0.2491313
 -0.19215538  0.04982443  0.15763712  0.2087564   0.14749481 -0.09558131
 -0.00063878 -0.12534237  0.2776704  -0.17431489  0.2686842   0.04887484
  0.30790263 -0.17960986  0.28567204  0.03796783 -0.01138498  0.28428277
 -0.02004232  0.11235613  0.20022848  0.08635379  0.1642523  -0.1303
 -0.24255192  0.01293407 -0.0472629  -0.04284232 -0.18592535  0.19486617
 -0.12912951  0.0527546   0.16454439 -0.17083575  0.1590178  -0.00790032
  0.05634104 -0.01324221 -0.04005245 -0.0018191   0.15131398 -0.00485589
  0.19006899  0.16657342  0.12467416 -0.24607585 -0.2536645   0.2724305
  0.03086988 -0.1238696  -0.09031111 -0.04461068 -0.16321173  0.19205925
  0.18154538 -0.08415747 -0.24333693 -0.12449452  0.27021667  0.12250856
 -0.0611219  -0.07068516  0.04509882  0.18412788  0.20677052  0.00613009
  0.07136746  0.0127861  -0.01582277 -0.16294244 -0.13748997  0.1774595
 -0.01136082  0.2903202   0.11034793 -0.10360432 -0.04215653 -0.1723077
 -0.10805149  0.02077104  0.07303564  0.20513535  0.28097183 -0.1794827
 -0.17121017 -0.03726493 -0.08583738 -0.13733983  0.22040844  0.05609728
  0.12149551  0.00068161]
[ 0.315771   -0.07925197  0.20452322  0.25554308  0.03636268 -0.11110812
 -0.02989841 -0.08712243  0.01684963  0.1224544  -0.26057714 -0.03575871
 -0.17462455 -0.06616464  0.1238938  -0.13075088 -0.15071435 -0.11921787
 -0.00077921  0.1051566   0.02294395  0.30958068  0.28714132 -0.0590663
 -0.02997508 -0.20461807  0.321495   -0.19467239  0.18923068  0.10572755
  0.20432138 -0.25814953  0.10106806  0.23299427  0.1132313   0.21208817
 -0.2257155   0.02507692  0.24292006  0.2571932   0.03010424 -0.21143219
 -0.07306539  0.29387474 -0.07736584 -0.06695103 -0.12985338  0.05941683
 -0.23528147  0.21891327 -0.03814818  0.018517    0.1630919   0.0900369
 -0.09282473  0.01478398  0.24034135 -0.16546735  0.17366114  0.02181078
  0.07348315  0.07475972  0.20625727 -0.22202136 -0.10601045  0.01356261
 -0.03187453 -0.08971234 -0.12604725  0.14563933  0.18097524  0.10416172
  0.28443995  0.06216082 -0.05359064 -0.01560962  0.27083993  0.11620542
 -0.02329707 -0.04079533 -0.17315161  0.25250745  0.1538953   0.18261187
  0.03893342 -0.06525908  0.01369394 -0.15054113 -0.13849439 -0.02979743
 -0.2622406   0.1614661   0.03434741 -0.14382467  0.1079316  -0.25442797
 -0.05370832 -0.17660764  0.1376509   0.08289137  0.1208101  -0.22108917
 -0.1989062   0.18176995 -0.12429029 -0.03231652 -0.04138235 -0.0953478
 -0.01740703  0.025428  ]
[ 1.37234062e-01  5.95019013e-02 -2.08131894e-01 -2.09317524e-02
  2.63769329e-01  3.09878718e-02 -6.86179027e-02 -1.26052636e-03
  1.23853765e-01  2.29303949e-02 -1.34786770e-01 -2.22918421e-01
 -3.18642139e-01 -9.83545650e-03  3.86027843e-02  8.93863589e-02
  2.05187678e-01 -1.06098868e-01  2.71902442e-01 -4.27752286e-02
  2.92987615e-01 -1.14236444e-01 -3.07530731e-01  5.17985821e-02
 -3.14241052e-01  3.44001710e-01 -2.29930207e-01  2.43152469e-01
  1.40416771e-01 -1.82945728e-02 -1.23283647e-01 -1.43596560e-01
 -8.71045366e-02  1.12763137e-01 -2.47492660e-02  1.77790478e-01
 -2.90544927e-01 -3.91472392e-02 -3.72966081e-01  2.75328755e-01
  2.60184947e-02  9.72349346e-02  1.29601657e-01  1.02535880e-03
  4.12161015e-02  1.18191034e-04 -2.26529300e-01  4.96085249e-02
 -3.74898255e-01 -3.05105448e-02 -1.67120639e-02 -1.29846081e-01
  1.67840570e-02  3.87188643e-02 -1.23536095e-01  7.10411668e-02
  2.06167251e-02  1.85014710e-01 -2.13532388e-01  8.39698911e-02
  1.60419732e-01 -1.40324593e-01  1.34000167e-01  6.81744441e-02
 -4.67954390e-03  2.92067051e-01  3.49614590e-01 -3.97228211e-01
  8.37924331e-02  2.24989250e-01  1.07456610e-01 -2.13462979e-01
  2.07697198e-01  1.41085818e-01  2.82259047e-01  1.07950404e-01
 -2.75050193e-01 -1.11907922e-01 -1.95418611e-01  1.19572505e-01
  2.37991497e-01  3.20551544e-01 -3.68820220e-01 -2.45491117e-01
 -2.07805336e-01  1.02544710e-01  9.31081325e-02  2.95254499e-01
  2.57616818e-01  9.74500403e-02 -4.32500452e-01  2.13216528e-01
 -4.63946275e-02 -5.55025488e-02  1.64187048e-03 -2.52628210e-03
 -9.55660343e-02 -5.04308729e-04  1.47634357e-01 -2.06803873e-01
 -5.71426861e-02  3.60919796e-02  1.10198066e-01 -2.41672322e-01
  1.09120704e-01  5.10380510e-03 -2.11343303e-01  4.27105390e-02
 -1.34825632e-01 -9.06429440e-02]
[ 0.15318139  0.07854337 -0.01745752  0.08487262 -0.39970377  0.16079219
 -0.03503707  0.23602465 -0.4268203  -0.26093948 -0.08958087 -0.05933135
 -0.40088752 -0.12522139  0.02961508 -0.04004693 -0.26324895  0.2285307
  0.30311543  0.13243684 -0.19665319 -0.24081919 -0.11607341  0.06428143
  0.05981734 -0.35951594  0.00215746 -0.37365243  0.04640765  0.01363096
  0.3349175  -0.46170434 -0.18045515 -0.08818781  0.26273003 -0.18228717
  0.08208252  0.13843708 -0.38787237  0.2699191  -0.29710448 -0.46228135
  0.28998142  0.22162588 -0.14549218  0.04192239 -0.17334688 -0.1625088
  0.12163299  0.01613557 -0.27098638  0.29632884  0.05154022  0.08331983
 -0.07084189 -0.39309633 -0.34828004 -0.15458553  0.09539407  0.03915819
 -0.14258534 -0.16192874 -0.02947479 -0.10362001  0.17947215 -0.18723682
  0.04002842  0.2361905  -0.15154266 -0.04431188  0.13774307  0.09092907
  0.05826198 -0.10437477 -0.14674145 -0.1067769  -0.03876734  0.11492814
  0.04704807 -0.05470235 -0.17803136 -0.00596938  0.10172728  0.36174187
  0.05735974 -0.081113   -0.04671018  0.05629861 -0.11636521  0.17498255
  0.2112994  -0.3090878   0.0404763   0.14554486 -0.32561186 -0.22564706
  0.24570447 -0.21484846  0.21461786 -0.27770263  0.07343816  0.35175878
  0.28249136 -0.01894139 -0.0323677  -0.01774521 -0.30251914 -0.15494043
 -0.2526426   0.14925492]
[ 0.22638296  0.1531138  -0.10632984  0.01636817 -0.05732373 -0.11842807
 -0.08306994 -0.12290863 -0.15581013  0.21221134 -0.02488987 -0.08024528
 -0.15954936  0.11649559  0.19519989 -0.08935433 -0.02417369 -0.15189117
  0.00572884  0.0972844   0.15766992  0.09563484  0.12263682 -0.15595426
 -0.00181291 -0.21908475  0.16545035 -0.26799357  0.12281102  0.10349633
 -0.14564584 -0.21425574  0.2964732   0.18326384  0.12693237  0.17727163
 -0.02314832  0.14760879  0.16394638  0.28694975  0.26864576 -0.28578362
 -0.1783016   0.10729408 -0.03188013 -0.0542246  -0.12284482  0.17719328
 -0.14806102  0.21915834  0.0641087  -0.05181466  0.24768189  0.24925593
 -0.2806934   0.23785576 -0.02561221  0.00635988  0.08104147 -0.04745813
  0.22310998  0.07845498  0.227739   -0.17821094 -0.20190948  0.12161973
 -0.00189918 -0.03062081 -0.11323354  0.00991679  0.08752594  0.13043725
  0.28151932 -0.22563884 -0.19503433 -0.06511072  0.09710786  0.19546527
 -0.10960931 -0.1374947  -0.08361562  0.01686042  0.25840673  0.15017322
 -0.00625718 -0.01417421 -0.04832122 -0.16200134 -0.09766436  0.21496364
 -0.10772978  0.02199561  0.21434149 -0.30135557  0.00927758  0.00652149
 -0.1079453  -0.12104818  0.14367504  0.07204199  0.27440506 -0.15322441
 -0.04741758 -0.02089101 -0.26959598  0.02862355  0.231916    0.25187626
 -0.06974922 -0.04727121]
[ 0.03802405 -0.2349504  -0.32974258  0.00097179 -0.12046049 -0.18138221
  0.02631638  0.03165573  0.20276676  0.16380994 -0.08156227  0.07996897
 -0.03923913 -0.34015393 -0.15855184  0.04426286 -0.12341755 -0.14001524
 -0.28275734 -0.14557147 -0.19163351 -0.18533473 -0.32676592 -0.03463435
 -0.07255444 -0.2876122   0.08146503  0.16614686 -0.01274344 -0.11287905
 -0.2090127  -0.08453102 -0.17031948 -0.01575018 -0.2482072  -0.4098552
 -0.06304629 -0.4075826  -0.1674356  -0.18314248 -0.16045372  0.10624184
  0.23004024 -0.27776793  0.09125261  0.04989186 -0.02627221  0.25819737
  0.07563757 -0.18174478  0.06890268 -0.27241614  0.00702868 -0.26333436
 -0.08577362  0.02600008 -0.35521433 -0.19272299 -0.3543109   0.18836421
 -0.1565443   0.06603169 -0.06827787 -0.43896145  0.14933577  0.02277081
  0.11592645  0.2351619   0.0593996   0.00360724  0.08837166 -0.00319236
  0.11504872  0.02953405 -0.11799501  0.12283254  0.07166937  0.01412314
 -0.08834855 -0.14849989 -0.05449195 -0.17191134  0.17995913  0.0297338
 -0.04453075  0.29346198  0.14964628  0.18270865  0.08957434 -0.16434819
 -0.14641306 -0.14110056  0.00758632  0.08808532  0.26260734 -0.2229621
  0.20794629  0.00758462 -0.36905596  0.04573258 -0.12119008  0.14430565
 -0.04720064 -0.21982323 -0.2832631  -0.10371239 -0.28234005 -0.18760702
  0.0849489  -0.08739529]
[ 0.07064715 -0.3404606  -0.18375446  0.23029734 -0.17676714 -0.06849665
 -0.04439322  0.41236475 -0.08353527  0.06668204  0.03589346 -0.05323268
  0.20597649 -0.04500304 -0.20529796  0.2233342  -0.01534552  0.06655469
 -0.28416362  0.08585369 -0.2425299  -0.04283858  0.04334944 -0.18050952
 -0.4411786  -0.31627145 -0.21339725  0.0995432  -0.18852854 -0.32675022
 -0.27562279  0.05443369 -0.06549037 -0.15005954 -0.28920844 -0.08401623
  0.09405681 -0.08578157  0.10642868  0.32731017  0.06671885  0.05170651
  0.23350741 -0.10620126  0.188927    0.0375672  -0.13406572  0.11077408
 -0.07461355 -0.09862122  0.00757594 -0.09802878  0.18040106 -0.06631704
  0.1511869  -0.05111586 -0.07910454 -0.03253148 -0.07559571 -0.15873271
 -0.41494972 -0.2536944   0.11002479  0.13114798  0.30267286 -0.14352404
  0.0500549  -0.09879179 -0.1542598   0.25868112 -0.35470077  0.25521383
  0.1674057  -0.12290164  0.02546008  0.05794496 -0.14148884 -0.37767664
 -0.1422259  -0.12616923 -0.02700184 -0.26349184  0.09731766  0.34689152
  0.01875515 -0.00139722 -0.15841304  0.05622763 -0.17225704  0.02308546
  0.14387012 -0.01102121 -0.17408642  0.15308885 -0.04849213 -0.10435815
  0.07316897  0.02961696 -0.35623598  0.01345327  0.3597683  -0.08073692
  0.1717925   0.12935671  0.03627351 -0.28957483  0.33985844  0.15228045
 -0.10924522 -0.34449413]
[-0.08255326  0.09569099 -0.23511215 -0.03889538 -0.24042639  0.4034889
  0.03555734  0.1410566  -0.4141027   0.27395684 -0.1105537   0.0314357
 -0.17091131  0.23543513  0.04434612 -0.23775834 -0.04533135 -0.42640415
 -0.2322851   0.23529491  0.003334    0.02502685  0.07060356 -0.0907959
  0.06067826  0.18601944 -0.19357146  0.00934772  0.11599341 -0.16918477
  0.15533991  0.1754516  -0.18719533 -0.15788518 -0.15752235 -0.27290225
  0.09380561 -0.04831536 -0.03120446 -0.29218578 -0.29867986  0.27783027
  0.2850142   0.25196844  0.18214363  0.08064419 -0.0617333  -0.23796529
  0.26195955 -0.21246542  0.21598215 -0.23510216 -0.13954383 -0.31462196
  0.06838735  0.07831461 -0.14407839  0.01631912  0.05064231 -0.09874755
  0.11976326  0.03876426 -0.28650263 -0.07037153  0.01146401 -0.01096083
  0.1423187   0.14869131 -0.28503785 -0.11591077 -0.12521978  0.01193723
  0.21633615 -0.09542185  0.06337563 -0.3235158  -0.20379555  0.08001065
 -0.23467574 -0.1605573   0.17884432  0.38144857  0.00870347  0.02526349
 -0.34815085 -0.04453107  0.03325499  0.03619563  0.14567526 -0.04792179
  0.44423848 -0.32034263 -0.3606522   0.02940988  0.10665914 -0.10722813
  0.00147294 -0.17167716 -0.12149075 -0.11747653 -0.09923708  0.09067842
  0.10783462 -0.29058927  0.22784612  0.15280509 -0.34046263 -0.19273008
 -0.07262761  0.01107813]
[-0.2726757   0.14523737  0.2941583  -0.22403602  0.03216894  0.01935087
  0.01705315  0.00682403 -0.11874798  0.02280148 -0.26373568  0.29118302
  0.39774352  0.03638752  0.29190907 -0.17788796  0.10713639 -0.02385614
 -0.25635657  0.06032595 -0.27329484  0.04044064 -0.11587068  0.16639157
  0.09870387 -0.10105545  0.1864963  -0.2716206  -0.30725443  0.19431487
  0.11970446  0.5892719  -0.16597201 -0.0237929  -0.20450829  0.10169601
  0.07610257  0.45739073  0.08251567 -0.4004195   0.28970677 -0.33918914
  0.14320534  0.12453355 -0.25654924  0.33538485 -0.00424686 -0.3304353
 -0.34542271  0.00409237  0.15004475 -0.03742173  0.07172257 -0.07797334
  0.08920304 -0.30970302 -0.30806038  0.06933788  0.16710453 -0.12029827
 -0.29145217  0.00790062 -0.18644264  0.31706664 -0.1599096  -0.3324252
 -0.03470773 -0.1903978  -0.27110252 -0.3906371  -0.308723   -0.18230654
 -0.22363825 -0.32696408 -0.01153492 -0.45313862  0.34363386 -0.38931134
  0.06302533 -0.11762607 -0.32086816 -0.037172    0.16360469  0.44404685
 -0.11851464 -0.3522094  -0.05129587 -0.4245065   0.09772889 -0.01951497
  0.31857866 -0.31564316 -0.3519527   0.2940682   0.23140901  0.24608277
 -0.08502118 -0.23762049  0.19359545 -0.36306524 -0.06775144  0.03024808
 -0.24324119 -0.12897983  0.2432399   0.18973136 -0.29422313 -0.29724747
  0.25083312 -0.25474876]
[ 0.34077975 -0.10308973  0.09532934  0.11563466  0.28454372  0.09411802
  0.10472325 -0.18258385 -0.02974443 -0.05775678 -0.02035356 -0.07599618
 -0.14136225 -0.04579329 -0.06900792 -0.01010428  0.09022228  0.08995761
  0.07117056  0.01184147  0.2062144   0.24393459  0.32741392  0.19130799
  0.35948694  0.01589996 -0.03223471 -0.04138029  0.12268895  0.13060349
  0.19848816 -0.2509754   0.26810244  0.10196226  0.0608868  -0.03647799
 -0.10480047  0.09448785  0.06920677  0.1415543   0.13305262 -0.49725303
 -0.3618027  -0.15448718  0.04314031 -0.0293125   0.346876    0.11196354
 -0.04361756  0.25841096  0.13572322 -0.11530902  0.17129973  0.03528301
 -0.19718294  0.17477214  0.02709441  0.03831327  0.26994938  0.10229489
  0.22683418  0.2738682   0.04572575  0.00227103 -0.32090545  0.0481385
  0.106942    0.04337076 -0.05213771 -0.00578641  0.14376032  0.2286611
  0.09533634  0.177622   -0.08441897 -0.06074514  0.1181621   0.00711853
  0.23804848 -0.03727981  0.00319727  0.00593714 -0.15261137  0.11607476
  0.21557234 -0.1547499   0.14776745 -0.36197275 -0.2500214   0.0807815
  0.15579458  0.08949776  0.10623714 -0.3727667  -0.12081261  0.11744562
 -0.29502013 -0.06335859  0.1081199   0.11154341  0.06212082 -0.31579694
 -0.17455195  0.18475927 -0.02221766 -0.01409156  0.16182427  0.1284047
 -0.0301926   0.2759604 ]
[-0.31534156  0.16073032  0.07011776 -0.05414214  0.30927235  0.03899308
  0.01953538  0.14921437  0.09007194  0.08440692  0.11844624 -0.2708246
  0.07796535  0.02431792  0.0796221  -0.06136744  0.00193902  0.07887667
  0.0975305   0.1573369  -0.07376555  0.06285816  0.08330017 -0.03802924
 -0.27314818  0.01658998 -0.20028618  0.04219699  0.1372725  -0.0941385
  0.16101006  0.02547088  0.03383695  0.00318464  0.15168665  0.17942257
  0.23738797 -0.12839484 -0.01313621  0.13596569  0.00873125 -0.15795639
  0.14115125 -0.13240919 -0.12303145  0.04015617 -0.16044568  0.10273159
 -0.12315037 -0.28742456  0.15535396 -0.1618145  -0.15572596  0.20935687
  0.12785608  0.15189047  0.14756566  0.14646755 -0.25735462  0.04007282
 -0.10503953 -0.29476017 -0.02703751 -0.04819487  0.07884092 -0.09820401
  0.00716564 -0.06432012  0.01119982  0.04368064  0.10066653 -0.091278
 -0.03358153  0.05570256  0.11664033 -0.05092045 -0.13053843 -0.00342273
  0.05576901 -0.31016132  0.1692088  -0.01943832  0.06863761 -0.03002361
  0.00866393 -0.16690944  0.13186203  0.03484245  0.1773142   0.15526511
 -0.05305743  0.0294178   0.09627222  0.07687542 -0.17392612  0.22249925
 -0.18179728  0.08825546  0.19672507  0.09619241  0.29704994  0.0007572
  0.3545809  -0.02945238 -0.37829486  0.11918214 -0.13039123 -0.02158633
 -0.19853288  0.0963883 ]
[-0.08639129 -0.15335898 -0.12662186 -0.15488984 -0.10649195 -0.07630378
  0.21816382  0.2100644   0.13294221  0.10786316  0.05890826  0.077535
  0.15199378  0.24977812  0.23704064 -0.21093813 -0.07067913 -0.03623771
  0.16503304  0.02658748  0.08776852  0.21033236  0.0589768   0.18245183
  0.04515729  0.12808329  0.01112057  0.09871554 -0.08771332 -0.11733294
 -0.16029842 -0.00693309  0.03115999 -0.02383608 -0.10258906  0.12867665
  0.04624763 -0.22616465  0.07604267  0.06903457 -0.08382416  0.13823193
  0.0748542  -0.12634781 -0.06097395  0.13183762  0.10395479 -0.01459521
  0.09410965 -0.01502268  0.24711014 -0.08939788  0.03180754  0.0153316
 -0.1547441   0.23670818  0.22011602 -0.04400872 -0.06703149 -0.19149649
 -0.08886913  0.00261398  0.03969103  0.17598665  0.07808124  0.0641818
 -0.05420233 -0.07741349  0.08219881  0.12324987  0.17820674 -0.14880027
 -0.0474068   0.19741066  0.13815671  0.08558966 -0.22279662 -0.19397831
  0.23179731  0.17855377 -0.20425056 -0.09676785  0.07694491 -0.13789818
 -0.16045754 -0.02445001  0.1582946   0.09906191 -0.24115857  0.1021498
 -0.07039286 -0.05375333  0.23349959  0.14572005 -0.2352103   0.05506111
 -0.09239901  0.25503957 -0.04980909 -0.13016398  0.06673948 -0.10670892
 -0.01921753  0.03511635 -0.07237427 -0.11526352  0.01778932  0.0204647
 -0.06190774  0.2547824 ]
[ 0.09038307 -0.13655068  0.4809926   0.25405124  0.14149782 -0.13285048
 -0.06947072 -0.3086834   0.03918568  0.05879809 -0.23569144 -0.15224001
 -0.2145237   0.13498946  0.23412329 -0.03435163 -0.03150658 -0.18755235
  0.06329097  0.10987389 -0.0181169   0.08599877  0.30136988 -0.0189169
  0.14442945 -0.18766648  0.3282193  -0.03946636  0.24507095  0.24279751
  0.27912766 -0.29980296  0.26038113  0.16165943  0.2364683   0.03332305
 -0.1361723   0.16100968  0.1764446   0.28416342  0.23689447 -0.11012283
 -0.1806689   0.1834377  -0.03552353 -0.1879047   0.07502939  0.13472992
 -0.15290421 -0.03433895  0.26130286  0.01013862  0.21312606  0.21426429
 -0.07840714  0.23513809  0.15591983 -0.17949778  0.15145086 -0.14800122
  0.29962012  0.10278369  0.07434011 -0.10496847 -0.17413764  0.0148125
 -0.07459996 -0.14521523 -0.07324475  0.00333467 -0.10227311  0.0494484
  0.22108963 -0.05545963 -0.25818098  0.0545171   0.09232625 -0.00303069
  0.0353122  -0.19100301 -0.2323895   0.19241492  0.04701696  0.2361209
  0.19603026  0.0852253   0.05307631 -0.23078601 -0.07765624  0.24425766
  0.00810063  0.2981444   0.02465632 -0.14884427  0.04098782 -0.10494778
 -0.21362238 -0.09955529  0.31736147  0.24667463  0.28889498 -0.18931967
 -0.19390948  0.05327282 -0.02814508 -0.07347112  0.15583678  0.10890006
 -0.07155327 -0.13682961]
[ 0.20697072 -0.02560824  0.21199349  0.15794928 -0.18412799 -0.16228734
  0.04559532 -0.25690097 -0.04255364  0.07559753 -0.14069605  0.0012541
 -0.10803656  0.0640477   0.19482794 -0.1210097   0.07059199  0.01286185
 -0.11971973  0.02478063  0.05847751  0.12916556 -0.04274339 -0.10677749
  0.00570981 -0.2092333   0.199701   -0.09995761  0.24387929  0.26483697
 -0.06890386 -0.16244592  0.1944146  -0.00666089  0.1448838   0.22319162
 -0.16172847  0.06450012  0.00134967  0.11174769  0.23705356 -0.05569832
 -0.08992717  0.17017779 -0.04590406 -0.1742728   0.08398062  0.06587604
  0.03851903  0.11869108  0.21499564  0.01278728  0.11718747  0.08510397
 -0.16747297  0.25325236  0.15002067 -0.17966403  0.16827615 -0.17424314
  0.05802691  0.05833398  0.13017355 -0.01181042 -0.24121034  0.02142014
 -0.11900926 -0.02310694 -0.11533112  0.1348309   0.08464535 -0.02623303
  0.18107271  0.05451182 -0.06645908  0.02978088  0.25690857  0.03149698
 -0.06035028 -0.05410154 -0.12440764 -0.10442619  0.02254088  0.27957147
  0.2292333   0.08450892  0.12589498 -0.11598431 -0.08405896  0.06941501
  0.03036824  0.0038524   0.05398076 -0.17106839  0.09774785 -0.1148149
 -0.02373921 -0.06095264  0.2846554   0.26407912  0.00954584 -0.14172973
 -0.08421454  0.1922203  -0.13443775 -0.09998014  0.16085476  0.15255709
  0.14259768 -0.13865195]
[-9.96410474e-02  2.05940664e-01  2.27893088e-02  7.96510428e-02
 -9.10243690e-02  2.05842316e-01 -2.69612055e-02  1.59830704e-01
  1.14645906e-01  2.63406366e-01  1.12082526e-01 -3.59528251e-02
 -1.64768565e-03  1.74497038e-01 -2.25827798e-01  1.15275331e-01
 -2.40609214e-01  1.11798555e-01 -2.36823320e-01  2.59320229e-01
 -3.21406573e-01 -3.45013402e-02  6.52940869e-02 -3.25794280e-01
 -2.57751524e-01 -2.10683063e-01 -6.94860518e-02 -2.39050925e-01
 -2.54645050e-01 -8.46937895e-02  7.73312077e-02 -1.01835594e-01
 -1.02467738e-01 -1.37099758e-01 -9.90665518e-03 -2.45041907e-01
 -3.15786563e-02  2.92237871e-03  9.96084064e-02  6.71837255e-02
  3.64846066e-02 -3.10321659e-01  2.58794811e-04 -4.39248383e-02
 -2.90597528e-01 -1.06102221e-01  4.60848399e-02 -1.23755066e-02
 -3.21565289e-03 -1.74172133e-01 -1.30142376e-01  1.62652671e-01
  5.20806238e-02  8.42358544e-02 -9.62286294e-02  1.44973040e-01
 -1.44370466e-01 -5.29141277e-02  1.87015429e-01  2.23491699e-01
 -6.17582351e-04 -2.97926873e-01  2.81570226e-01  2.88618654e-01
  2.83021361e-01 -1.56588659e-01  2.55515538e-02 -8.68447348e-02
 -7.54342973e-02 -5.29389866e-02 -1.07036193e-03  1.71596810e-01
 -6.41707405e-02 -6.62975833e-02  2.13673487e-02  6.17011338e-02
  1.41491264e-01  2.68514454e-01  8.26288909e-02  2.36338153e-01
  3.19348395e-01  1.98958158e-01  3.34373787e-02 -1.94698080e-01
  8.41332078e-02  2.34935805e-01 -2.00731173e-01  1.30639702e-01
  1.48897141e-01  2.17699423e-01 -2.73602873e-01 -5.28318807e-02
 -2.84115821e-01  2.42937610e-01 -1.40616834e-01 -4.25678790e-02
  9.63996872e-02 -1.07592337e-01 -2.82869160e-01 -2.84404699e-02
 -3.59707862e-01  3.22335601e-01  2.63447464e-01  1.22719020e-01
 -8.89408663e-02  3.60546447e-02 -1.30019173e-01  3.35089564e-01
 -2.88770646e-01 -6.55588955e-02]
[-0.29066113 -0.02171702  0.18377548 -0.05408234  0.1729007  -0.42553633
  0.08419212  0.05979478 -0.05762797  0.21586268  0.05322939 -0.17761509
  0.11560224  0.08482449  0.30716288  0.16123936  0.09386106 -0.21950333
  0.20081368  0.19333608 -0.00530659  0.04782436  0.14362621  0.17011254
  0.26462194  0.03399546  0.0465867   0.22262228 -0.0960308  -0.02216402
  0.11964867  0.01615263  0.0106343   0.07331828  0.20710349  0.11300546
 -0.0046023  -0.00629686  0.29601648  0.04161166  0.11746638 -0.08757636
  0.02590678 -0.08805677  0.0364912  -0.06202967  0.19584069  0.10225906
  0.38757595  0.04679728 -0.40496174 -0.12331221 -0.33030692 -0.0611736
 -0.5995038   0.17464367  0.10844205  0.09085242  0.21273302  0.15875486
  0.20541024  0.18836841  0.21460798  0.18989815  0.19715285  0.05746116
 -0.06057684 -0.5141384  -0.11472356  0.15725063 -0.04488701 -0.06514867
 -0.13843599  0.12012991  0.19178301  0.16775298 -0.31786314  0.16566336
  0.08957752 -0.39157167 -0.08560699  0.24323945  0.09769758  0.24963363
  0.07263594 -0.16876468 -0.12850024  0.11226324  0.10570031  0.137907
 -0.43135303 -0.05591995 -0.10741106  0.05924167  0.00790353  0.13297628
 -0.10616376  0.11211167  0.16886596 -0.10794682 -0.05471752  0.11644635
  0.20979348  0.32616663  0.22254367 -0.04161323 -0.01941385 -0.07834106
 -0.07288463  0.07732941]
[ 0.11468931  0.06478154 -0.04083668 -0.04300215  0.29487872  0.20908079
 -0.3218244  -0.02838282  0.10957516 -0.05906789  0.29773873 -0.11898918
 -0.18398559 -0.04490666 -0.35368916 -0.00583085  0.19402607  0.02450845
 -0.11602172 -0.16407235  0.13704664 -0.00751441  0.02305854 -0.10270186
  0.15514538  0.29853484  0.0369922   0.16981556  0.18412608 -0.0105022
 -0.12471445 -0.22052293  0.02201935  0.14660205 -0.07101996 -0.05356918
  0.18447126 -0.06941599 -0.17597997 -0.22255585 -0.13845602  0.18434432
 -0.07743815 -0.03567328  0.42734423  0.02255649  0.05408686  0.18040633
 -0.09045331  0.14411508  0.06905678 -0.12588534  0.0248984  -0.01479578
  0.29473522 -0.03622815  0.02530766 -0.13903122 -0.26687738 -0.13658834
  0.19076689  0.07294937 -0.04076629  0.10767941 -0.03018432 -0.11700839
  0.05407346  0.02226175  0.13582279 -0.01440977  0.1394461   0.02837474
 -0.00698393  0.07833214 -0.07424358  0.02342429  0.04610101  0.04216917
  0.10099167 -0.09999187  0.18398851  0.01906466 -0.31340075 -0.19435465
  0.09023993 -0.21395223  0.23816821  0.06573025  0.07042451  0.08860737
  0.08158018 -0.07878125 -0.05287438  0.00183576 -0.13968767  0.00948489
  0.16317154  0.03354233  0.16256602 -0.09164931 -0.0533251  -0.12466199
  0.17987798 -0.18644735 -0.20499307  0.03531494 -0.0177246   0.04365757
  0.08529846  0.16416293]
[ 0.20088531 -0.12714125  0.0800222   0.10185681 -0.00955526 -0.03384145
 -0.015726   -0.07622921 -0.21149103 -0.07738258 -0.02205955 -0.20610218
  0.02247353  0.11327055  0.05249649 -0.12017085  0.05734714 -0.02599647
 -0.09978549 -0.18296133 -0.00516415  0.19811867  0.18167895 -0.07456145
  0.16414233  0.04146086  0.08074693 -0.00704183  0.07559575  0.15800075
 -0.14126237  0.08192558  0.13201298  0.31693262 -0.02708702  0.0314609
 -0.20352493  0.00332169 -0.0226139  -0.10094643  0.16083501 -0.10794587
 -0.29690477  0.04015617  0.00841958 -0.08970811 -0.01769049  0.09104818
 -0.01325998  0.21845615  0.08921907 -0.22350737  0.02337908 -0.18563752
 -0.10931446 -0.02405736  0.09237181 -0.03697593  0.22520797 -0.02081819
 -0.00590357  0.08060269  0.10531205 -0.12181301 -0.3120933   0.17037654
 -0.06415676 -0.07353196 -0.03987767  0.06360033  0.08940467  0.14963375
 -0.0930394  -0.10039845 -0.16956508 -0.09311984  0.2296663   0.2645025
  0.12093996  0.02986566  0.0189935   0.07108858  0.09756562  0.11168892
  0.11294363  0.024972    0.20125562 -0.0087379  -0.21649247 -0.04881372
  0.08469007  0.0839821   0.16055167 -0.01851779 -0.05640833 -0.01867084
 -0.22994286 -0.21507114 -0.08692802  0.16123742 -0.2149606  -0.14812975
 -0.16045791  0.22925676 -0.0344928   0.04111711 -0.09491476  0.24178925
  0.24490856 -0.21479422]
[ 0.3024591  -0.09382589  0.1764235   0.17738658 -0.05331507 -0.10748199
  0.02315159 -0.13984439  0.07130869  0.08059956 -0.11716424  0.01065589
 -0.12921216  0.04354134  0.01983662 -0.03851544 -0.18179968 -0.19388552
 -0.21183164 -0.13796072  0.003955    0.20267463  0.00983447 -0.01210212
  0.08195062  0.02042929  0.19198556 -0.25169733  0.05318187  0.23301867
  0.26707348 -0.16385168  0.03012679  0.26058543  0.27379408  0.26630038
 -0.1566693   0.07749803 -0.0144886   0.2801476   0.10759961 -0.15933059
 -0.15195109  0.09725508 -0.1677327  -0.01205696 -0.02409507  0.14106251
 -0.05468145  0.04160595  0.01974161  0.02413766  0.251836    0.09386084
  0.02653719  0.1870673   0.09874234  0.01743517  0.0992184   0.0494749
  0.06487657  0.23689516  0.17157815 -0.1919452  -0.12214419  0.08412362
  0.06475539 -0.08328187 -0.16536109 -0.03083901  0.03369014  0.22621815
  0.0471693  -0.13996181 -0.2668121   0.0181988   0.06983902  0.06496197
 -0.04430095 -0.21658593 -0.01278043  0.13931641  0.15278573  0.02340671
  0.14560181 -0.07179341 -0.06113101 -0.22573939  0.05667995  0.10063914
 -0.13525726  0.29876134  0.24084517 -0.27604216  0.10115916 -0.03147187
 -0.08674632 -0.1609904   0.15298276  0.22200674  0.2747964  -0.18921515
 -0.11339903  0.07736577 -0.14966744 -0.1038529   0.04923861  0.15476042
  0.06068989 -0.10436877]
[ 0.31313315  0.06868203  0.20779128  0.19459337 -0.08215401 -0.10900456
 -0.06770476 -0.00480974 -0.04641895  0.14745101 -0.11435092  0.11169314
 -0.23962262  0.0973905   0.2677952  -0.05738431 -0.06383796 -0.06566719
 -0.13896118  0.13639206  0.07182469  0.224907    0.2392291  -0.14608498
  0.20394659 -0.22021966  0.28374234 -0.13436581  0.03406392  0.12240078
  0.28933063 -0.13991348  0.28891546  0.25289696  0.06363375  0.12981312
  0.02119201  0.17275418  0.05316038  0.24254158  0.0718124  -0.27589485
 -0.12688945  0.15214801 -0.1818977  -0.21323508  0.13564073  0.14061351
 -0.2120318  -0.0190962   0.003801   -0.04037265  0.24728858  0.18632327
 -0.09743684  0.11710936  0.08832541  0.13359526  0.2117307  -0.13012631
  0.18781137  0.2520763   0.08908249  0.04596352 -0.19855501 -0.02126328
 -0.03940844 -0.06705739 -0.12737596  0.04586122  0.01835264  0.2822271
  0.20993097 -0.09663435 -0.0949505   0.09009934  0.0466777   0.07056171
  0.14099304 -0.04276811 -0.15861267  0.1999915   0.10318562  0.07763606
  0.21635772  0.0377228   0.0250025  -0.21891475 -0.07782553  0.0322227
 -0.21156794 -0.05527241  0.14539301 -0.0143218  -0.08638092 -0.00518089
 -0.25168806 -0.17630304  0.20787425  0.25782308  0.28607073 -0.19032444
 -0.20332469  0.19436564  0.01604742  0.05214541  0.06772353  0.12565617
  0.07215547 -0.02709763]
[ 0.21543217 -0.07382013  0.25197867  0.01292703 -0.09192501 -0.01766685
  0.10587227 -0.04414796 -0.12048481 -0.13071705 -0.24215688 -0.00351081
 -0.04872289 -0.09847064  0.22065711 -0.02692082 -0.09139682 -0.00611899
 -0.0585676   0.02922281  0.12322837  0.19472109 -0.04738331  0.13796239
  0.10191009 -0.20011973  0.12720335 -0.16242915  0.06135956  0.05473685
  0.20989637 -0.04778962  0.18969002  0.178018    0.13798624  0.27835062
 -0.26523936 -0.00581315  0.06957664  0.11961597  0.2839312  -0.1990682
 -0.07064122  0.27908158 -0.13476326 -0.09220529 -0.13536237  0.17790006
 -0.13361685  0.26657602  0.04864748 -0.07164498  0.2860332   0.07130942
 -0.13710074  0.23379359 -0.0290585   0.10705757  0.09369475 -0.0568675
  0.26403606  0.20254488  0.27333012 -0.11765047 -0.19015428 -0.03181995
 -0.00218964 -0.13432252 -0.08545376  0.2585395  -0.05732942  0.02662064
  0.00092925  0.09585796 -0.02453     0.22647843  0.12988281  0.01562045
  0.11129544 -0.05896371 -0.15652904 -0.06905685  0.10296077  0.21610959
  0.22605202  0.04791023  0.07460626 -0.05585216  0.02320939  0.0534147
 -0.08475716  0.11616993  0.2541223  -0.03270301 -0.09089348 -0.08386135
 -0.07353476 -0.14091809  0.00962339  0.11733802  0.06666218 -0.1376196
 -0.16691929  0.17742029 -0.3063153   0.10459203  0.15582378  0.00264114
  0.13566285  0.10448366]
[-0.17029525 -0.09160788  0.08931971  0.04686147  0.10786146 -0.15526004
  0.01587974  0.03967589 -0.1772644  -0.26521885 -0.15835427 -0.15295668
 -0.06595106  0.2050934   0.11710003 -0.17535748 -0.0143306   0.18051144
  0.04335679 -0.01736018  0.08914952  0.06793155  0.05669755 -0.09491249
 -0.00131554 -0.01070403  0.10044268  0.02383908  0.27391797 -0.07228784
  0.1419529  -0.03697105 -0.16250873  0.01645392 -0.04985738 -0.1832518
 -0.33413956  0.16822678  0.21540287 -0.11242621 -0.04302273 -0.14227867
 -0.16836976 -0.04971977 -0.01633272 -0.13336888  0.25571412  0.11774721
 -0.02978662  0.16200985 -0.23540129  0.23146474  0.17221776  0.3660614
 -0.10736869  0.02528813  0.19006655  0.10490706 -0.00674279 -0.07903841
 -0.03170777  0.02056998 -0.31253195 -0.21187522 -0.09112656 -0.04588079
 -0.03752607 -0.03185579  0.02637334  0.11778188  0.27217987 -0.26085156
 -0.04741453 -0.1455904  -0.18814321  0.13185997 -0.08700418 -0.01316763
  0.08973242 -0.17042656 -0.09897844 -0.11867729  0.06289982  0.06172652
  0.25677946 -0.15616295  0.16442879 -0.01614163 -0.24297695  0.20551512
  0.05336119 -0.09828267  0.17384747 -0.148353    0.10912386  0.1465958
  0.01899923 -0.01830039  0.04082609  0.21278322  0.03824774 -0.01369692
 -0.08491632 -0.10779707  0.02845783  0.22297503  0.06600909 -0.15632662
  0.2905841   0.18629777]
[ 0.27988157 -0.13940094 -0.12912595  0.02805268 -0.09201517 -0.09558798
 -0.05200139 -0.33312553  0.05160598  0.06567267 -0.21740687  0.0982982
 -0.26203686  0.10962338  0.37526712 -0.19462201 -0.13998413 -0.0309678
  0.06527979  0.09965884  0.3166313   0.2650807   0.382011    0.0270281
 -0.03576937 -0.22699687  0.35276705 -0.23552458  0.13941513  0.21765566
  0.08059116 -0.19438551  0.3257567   0.28960037  0.31145343  0.22676003
 -0.3172836   0.36635485  0.17456508  0.23900908 -0.00333689 -0.30165195
 -0.34281296  0.00374479 -0.12783253 -0.3728927  -0.18926708  0.22781378
 -0.1533265   0.3159296   0.24516302 -0.06307184  0.23255128  0.11818948
 -0.13164331  0.28563     0.27541387 -0.10632602 -0.08285671 -0.18585496
  0.11678223  0.38386038  0.32653633 -0.09542342 -0.17488825  0.17389168
 -0.30888104 -0.03377178 -0.00676682  0.21986431 -0.00091393  0.33695078
  0.17137803 -0.04952116 -0.1987975   0.13508111  0.2259318   0.23086382
 -0.06409595 -0.1554462  -0.08752984  0.19680549  0.26441103  0.29834855
  0.36719072 -0.08538231  0.09748929 -0.15474465 -0.13942502 -0.01620493
 -0.06269843  0.35992664  0.3584449  -0.32023516 -0.08396967 -0.12990661
 -0.14241146 -0.17158796  0.33990994  0.36512387  0.07423765 -0.10733061
 -0.16631782  0.09326314 -0.12336921  0.04573813  0.18063147 -0.16405384
  0.02635488  0.07036918]
[ 0.21937177 -0.24367101  0.04697423  0.1491723   0.16714841 -0.01854541
 -0.02666482  0.08164871  0.11444581 -0.0276162  -0.03631004  0.12282854
 -0.15970059 -0.05315663 -0.06843805  0.06504194  0.15244722  0.00443148
 -0.00217969 -0.21553959  0.16094552 -0.1428239   0.11464965 -0.11366209
  0.10710547  0.20956402  0.01536736  0.05375529  0.31774902  0.14534503
  0.16260162 -0.3063962   0.23716219  0.3081636  -0.20904775 -0.02655669
 -0.08571396 -0.14862272  0.01916013  0.024707    0.24316995 -0.19633159
 -0.14919731  0.13562167 -0.09556151 -0.06461426  0.2990341   0.2108435
  0.1199095   0.17824216  0.11005037  0.13459454  0.01427555  0.06939022
  0.05888714  0.21934831  0.25951183  0.1306912  -0.04975355  0.1124835
  0.05852095  0.15697183  0.09528897 -0.00996419 -0.12611856  0.04684165
  0.16266555  0.21648787  0.00426742  0.20559973  0.17556585 -0.21645407
 -0.15779734 -0.02278322 -0.29090822  0.15296884  0.2010001  -0.23077367
  0.04458973  0.17606711 -0.1031751  -0.07883215 -0.05075303 -0.09873552
  0.308751    0.0528556   0.08470584 -0.09107256 -0.26463398  0.02933202
  0.10294849  0.18468942  0.35576007 -0.2283523  -0.09414098  0.01508992
  0.00490651  0.12028151  0.00993557 -0.11614366 -0.08489376 -0.29550037
 -0.09812265  0.16301973 -0.22028647 -0.07410625  0.1955219  -0.03265598
  0.2902445   0.10870764]
[ 0.23123954 -0.07417253  0.28242427  0.02401381  0.04144334  0.01451863
 -0.00545122 -0.17246504  0.11932254  0.11731448 -0.22105265 -0.12400584
 -0.17580928  0.14020991  0.11724215 -0.14895573 -0.12634188 -0.04091152
 -0.00504841 -0.00919685  0.16964522  0.1334067   0.13265693 -0.07847571
  0.05489927 -0.18785408  0.27667975 -0.0725284   0.19304134  0.19681802
  0.06904798 -0.23129536  0.15632674  0.21052809  0.05966928 -0.00141291
 -0.06140844  0.21929725  0.22431521  0.13121194  0.19773163 -0.08807067
 -0.19487657  0.01606275 -0.11823656 -0.17677875 -0.00434775  0.05137072
  0.00736325  0.2194319   0.16944338 -0.06945853  0.08981892  0.17581846
 -0.1792505   0.11512554  0.11256967  0.074708    0.18728726 -0.10661127
  0.27667812  0.02295914  0.15106073 -0.18778867 -0.18490452  0.07944716
  0.03338369 -0.24608302 -0.02265798  0.21681292  0.1690365   0.24737115
  0.0659261  -0.04635666 -0.14973715 -0.04032443  0.21954568  0.13061921
  0.08468817 -0.16543958  0.01729684 -0.0596717   0.22298984  0.29699817
  0.05894873  0.02692729  0.1570643  -0.09543797  0.04350468 -0.04119847
  0.0863823   0.1726706   0.0960558  -0.12409023  0.0718177  -0.03938422
 -0.20620283 -0.12245315  0.05907845  0.01326484  0.05637887 -0.26703116
 -0.05422812  0.17989835 -0.18651283  0.01898602 -0.01770661  0.26189825
 -0.08453298  0.00113226]
[ 0.1050014  -0.11170538  0.23943755  0.02665239 -0.04519901 -0.10221338
  0.06340298 -0.21394785  0.05308754  0.0467762  -0.2705987   0.10591157
 -0.14772516  0.02167428  0.16566439 -0.20347098 -0.2256965  -0.17421415
 -0.1911812  -0.15481244 -0.02788388  0.21841921  0.11980674 -0.20469482
  0.20091866 -0.12649699  0.17701517 -0.13822801  0.09594356  0.08718377
  0.22841102 -0.13618632  0.31548458  0.22455595  0.26520634  0.2158643
  0.00942156 -0.00565323  0.22520179  0.20548543  0.16029353 -0.02727012
 -0.19534521  0.03788151  0.00981994 -0.22072436 -0.15038742  0.2731234
 -0.06171707 -0.02470258  0.09418515 -0.1559097   0.21503784  0.10460005
 -0.11087792  0.10707588  0.26069432 -0.00248759  0.05059971 -0.08394895
  0.21840169  0.26724428  0.08029304 -0.02793978 -0.21814638  0.1683957
 -0.11662538 -0.16972812 -0.06566919  0.0406995  -0.0393629   0.26384303
  0.17406926 -0.2159129  -0.12113138  0.04245953  0.04010749  0.01117351
  0.03947078 -0.19087356 -0.18435138 -0.02941213  0.07647085  0.18257567
  0.05916132  0.11362895  0.01765674 -0.04842585  0.05305378  0.14854068
 -0.01049585  0.31680605 -0.00914421 -0.08502065  0.21646552 -0.20595129
 -0.03461459 -0.08732255  0.15663204  0.04712691  0.31364205 -0.09990302
 -0.06256972  0.2263885  -0.04794681 -0.10764243 -0.0060049  -0.03201284
 -0.0411434   0.06219751]
[ 0.21472615 -0.11014609  0.22493997  0.23302889 -0.18567576 -0.18965712
  0.15415914 -0.21664442 -0.03060628  0.01974098 -0.07192409  0.04533017
 -0.08776594  0.06012899 -0.03535166 -0.00162719 -0.013746   -0.14474675
 -0.15001984 -0.06639313  0.00454589  0.25034088  0.0179069  -0.08092612
  0.11630388 -0.0645348   0.04387254 -0.13550547  0.20281056  0.12832026
  0.11496994 -0.31699294  0.271549    0.0027149   0.18850452  0.28288224
 -0.1034112   0.17518353  0.11809099  0.13623331 -0.06938447 -0.08692057
 -0.06091244  0.04320501 -0.17612544 -0.07849422 -0.14376529  0.10717273
  0.04169971  0.02694434  0.25237143 -0.0380203   0.07471214  0.08519398
 -0.14495757  0.18264702  0.20220429 -0.1093214   0.15202126 -0.0254146
  0.29027966  0.19506682  0.0920288  -0.10902026 -0.13563842  0.17928985
 -0.04069401 -0.07614376 -0.16464765  0.06755985  0.14939742  0.20643418
 -0.08109419 -0.09744526 -0.2603183   0.11377885  0.04516973  0.20413972
 -0.00710974 -0.13661459 -0.15090647 -0.05319572  0.19780548  0.28269777
  0.04662552  0.05812199 -0.05025113 -0.1389903  -0.05601221  0.05253583
  0.01902292  0.071657    0.05293079 -0.10135     0.01672922 -0.16578294
 -0.1744265   0.03702756  0.21191567  0.1369461   0.10356582 -0.19708344
 -0.04944054  0.23409513 -0.12127308 -0.04091226 -0.02387757  0.01185041
  0.18217292 -0.13724737]
[ 0.06233069  0.21458957 -0.08007137 -0.01739188 -0.20574735  0.20822307
 -0.24105346  0.03423187 -0.09834357 -0.02212155  0.12334328 -0.07133396
 -0.02273082  0.0733522  -0.14254032  0.01890634  0.14659536 -0.0861105
  0.04348705 -0.08720319  0.28883928 -0.00947269  0.01029582  0.01927357
 -0.07384037  0.00052905  0.14088123 -0.13959143  0.22283444  0.23508315
 -0.12957619  0.07780204 -0.1537027  -0.23093313 -0.25592616 -0.2552866
  0.13980094 -0.00988818 -0.17693925  0.07560356 -0.03770157  0.33910307
  0.21566199 -0.06047057 -0.00867853  0.00906746  0.09337728 -0.04990929
 -0.06311749 -0.07617722  0.00074382 -0.06512691 -0.21652925 -0.11014827
 -0.08783317 -0.0913239  -0.13863637  0.14928067 -0.06810968 -0.06669075
 -0.06287169  0.20248863 -0.02715299 -0.24040283  0.04174033 -0.17475036
  0.23703425 -0.08428314 -0.20904018  0.00601455 -0.00246422 -0.12987314
  0.16250634  0.0244305  -0.06924639 -0.03138966 -0.20913588 -0.05486595
  0.01919936 -0.16858177  0.01148023  0.0295468   0.00866316  0.11697335
 -0.17168939 -0.05416819  0.03733122  0.05260425 -0.15356912 -0.16215149
 -0.02468633  0.00918435 -0.10557682  0.11424373  0.02566894  0.04227345
  0.00157572  0.02344569 -0.25950977  0.02198219  0.00518487  0.13857323
  0.0289012  -0.12701432  0.01983487 -0.13315694 -0.13410331 -0.09778722
 -0.12886693 -0.0112389 ]
[ 1.82575196e-01 -1.15063518e-01 -4.18801233e-02 -5.33007160e-02
  2.04426929e-01 -1.40830368e-01  3.48227136e-02 -1.06384447e-02
  4.44703773e-02 -1.64452642e-02 -1.69298068e-01  2.24094726e-02
  3.22525129e-02  6.80427924e-02  2.12861717e-01 -8.19072276e-02
 -1.45120978e-01 -1.99453786e-01 -1.97830975e-01 -6.57679588e-02
 -6.64822385e-02  2.51950800e-01 -7.62488768e-02 -1.87550142e-01
  1.49809137e-01 -8.84236619e-02 -4.71863039e-02 -2.08816484e-01
  1.68395281e-01  1.48060381e-01 -1.11802682e-01 -1.17053082e-02
  1.30005151e-01  1.73652723e-01 -6.77369907e-02  1.22276557e-04
 -3.69876325e-02  2.22324789e-01  1.29888043e-01  4.38414738e-02
  1.86712127e-02 -2.36070119e-02 -1.97338685e-01  6.45147786e-02
  2.67462879e-02 -8.39946605e-03  2.63550077e-02  1.30797178e-01
  3.18631530e-03  2.52496272e-01  2.81267345e-01 -1.31635442e-01
  9.93959233e-02  1.38370097e-01 -1.14328057e-01  1.14889622e-01
  2.53432333e-01 -3.26967314e-02  1.21703036e-01  1.80064216e-02
  2.75607388e-02  2.44162410e-01 -1.36442512e-01 -8.44544619e-02
 -1.45823374e-01  1.69713214e-01 -1.53070942e-01 -1.85284644e-01
 -1.54359698e-01  1.71137258e-01 -6.85287872e-03  2.69298792e-01
  2.40757555e-01 -1.13781251e-01 -1.02143846e-01 -1.51589885e-01
  6.10986836e-02  1.05025835e-01 -4.03332412e-02 -5.63127548e-02
  3.45902666e-02  1.64834097e-01  5.18630743e-02  8.67334828e-02
  1.56584755e-01 -9.25433189e-02  1.76903661e-02 -1.84836909e-01
 -1.13267964e-02  3.98047008e-02 -1.23881176e-01  1.83407485e-01
  1.14168935e-01 -9.80759412e-02 -7.62409121e-02 -2.38944709e-01
 -1.03538565e-01 -6.23201206e-02  1.07983164e-01  1.15918882e-01
  2.07689568e-01  1.36436969e-02 -6.94282502e-02  2.56292343e-01
 -1.12691291e-01  2.52687968e-02  5.67749795e-03 -1.31094754e-01
 -7.76162446e-02  2.83658784e-03]
[ 1.75576493e-01  4.56474088e-02  1.61655411e-01 -1.10512353e-01
  8.69383216e-02  1.40621185e-01  1.87219456e-01 -2.84410745e-01
  2.69595720e-02  2.31525183e-01 -4.55124825e-02 -2.80083388e-01
  4.30038460e-02  1.22781195e-01 -1.79788545e-02 -9.90743190e-02
 -3.01985927e-02  1.11681402e-01  2.12538525e-01 -4.07446586e-02
  2.29308270e-02  7.12375194e-02  1.75200254e-02 -1.78669747e-02
 -5.64135518e-03  1.75929233e-01 -1.42740458e-01 -9.60564017e-02
 -1.85650755e-02  8.09371471e-02 -9.60791185e-02 -3.21164727e-02
  2.14513302e-01  3.15472409e-02  8.90983343e-02 -8.67443159e-02
  2.62375116e-01 -1.08100049e-01 -1.13195129e-01 -1.64818183e-01
 -5.70103042e-02 -8.54713656e-03 -1.75952494e-01 -1.41555339e-01
  1.32208958e-01 -9.14236009e-02 -7.63141215e-02  2.18228176e-01
 -6.95554763e-02 -6.20362395e-03 -1.03878401e-01  2.37484314e-02
  1.75767899e-01 -1.73634097e-01  5.07693328e-02 -9.99426411e-05
 -8.64785910e-02 -6.16007484e-02  1.11234315e-01  3.10209319e-02
  1.07904121e-01 -7.86131099e-02  2.27464169e-01 -1.57127336e-01
 -1.70506194e-01 -2.07651649e-02 -2.26080522e-01  4.79612090e-02
 -1.69832513e-01  1.92037001e-01 -1.35768056e-02 -1.83812425e-01
 -3.67257148e-02  1.77709803e-01  1.07490286e-01 -3.51549014e-02
 -1.36396095e-01  2.80063003e-02  7.37638921e-02  4.24867831e-02
  1.31445661e-01  8.64975303e-02  2.01545004e-03 -1.29374266e-01
 -3.20024835e-03 -4.23869565e-02  1.67188793e-01 -1.68935582e-01
  8.85361135e-02  6.55971020e-02 -1.17015690e-02  6.32839650e-02
  1.92262441e-01 -1.72044009e-01  2.39441488e-02 -1.26476675e-01
  8.75119790e-02  8.35644267e-03 -3.23898830e-02 -8.99472982e-02
 -1.21985048e-01  1.55090258e-01  9.39400867e-02 -5.30573726e-02
 -1.55799603e-02 -7.12570399e-02 -3.98531090e-03 -4.07044142e-02
 -8.20076838e-02  1.39204279e-01]
[ 0.10620592 -0.00581682  0.2886918   0.0824974   0.10466638 -0.13163461
  0.17480516 -0.1630433   0.03050781  0.08536795 -0.24940199  0.16844927
 -0.25416777  0.05101619  0.13764694 -0.2564051  -0.03006908 -0.14028756
 -0.03214479  0.09678535  0.14398672  0.08422758  0.04116293 -0.2015114
  0.02816505 -0.06568284  0.04704304 -0.1710691   0.05860912  0.12064247
  0.2011038  -0.24887629  0.30524492  0.00171614  0.28432953  0.29495224
 -0.23361044  0.20008045 -0.00079497  0.24674755  0.20396385 -0.08144909
 -0.24132563  0.07985502 -0.01226719 -0.17730354 -0.17176382  0.24900034
 -0.182577   -0.00599216  0.29236928 -0.04131458  0.18359664  0.16155137
 -0.02365463  0.20038368  0.15720278 -0.04191865  0.16842294 -0.06601408
  0.05151227  0.15673989  0.2882027  -0.04561371 -0.14855285  0.07592139
 -0.03717443 -0.01426816 -0.15289603  0.19592802  0.02283243  0.18786564
  0.09312444 -0.02167127 -0.01228117 -0.06805246  0.01040787 -0.00851364
 -0.02192261 -0.11379739  0.07367332  0.00256873  0.11296652  0.00972746
 -0.02734949 -0.08370395  0.07254168 -0.23538515  0.00433317  0.19071703
 -0.02204966  0.0349011   0.20749027 -0.24314895  0.08009547 -0.15143715
 -0.02397703 -0.16289327  0.15706687  0.26075363  0.22022331 -0.13135932
 -0.2080352   0.0960997  -0.14018112  0.01913033  0.10176619  0.13758668
  0.05514623 -0.23068361]
[ 0.13179958  0.03423809  0.07087045 -0.05284367  0.22151344 -0.22826359
 -0.15106882 -0.17661451 -0.04202222 -0.06294841  0.01813999 -0.09944418
  0.04178607 -0.04147923  0.13137573  0.1254528   0.1671241  -0.06254548
 -0.34433222 -0.11618411  0.38025177  0.16122814  0.01220771  0.26399636
  0.1709902  -0.14380725 -0.05113343  0.03699525  0.20915504  0.15029821
  0.00575583 -0.00963352  0.30425733  0.29016647 -0.01337168  0.1559921
 -0.2605628   0.17498705 -0.01861262 -0.04482088  0.1234456   0.0401577
 -0.16812141 -0.11686132 -0.03021903 -0.03992688 -0.09757576  0.15626511
  0.01043423  0.14494726  0.00157053  0.01648265  0.1281274   0.12581494
  0.10239314 -0.03606183  0.20704603 -0.01208694 -0.00162375  0.02351465
  0.15989563  0.22437234  0.18511987 -0.17473356 -0.09484197 -0.05329559
 -0.08741958 -0.40238535  0.07607111  0.13691084  0.00208106  0.1529092
  0.09884351  0.06040438 -0.00220038 -0.14265251 -0.00967524  0.06505217
  0.01257457 -0.13558055 -0.07586159  0.17516984 -0.02262618 -0.00105768
  0.03722261 -0.05537681  0.30134723  0.03596566 -0.05226185  0.07624263
 -0.2666255   0.2133339   0.16216242 -0.13741551  0.17349443 -0.2704209
  0.0952741  -0.03969935  0.03822407  0.16329224 -0.0055635  -0.11068231
 -0.00281451 -0.05944325 -0.14489858 -0.04390023  0.27891716  0.2972666
  0.03889786  0.06294525]
[ 0.17053027 -0.24190041 -0.06018154  0.12572886 -0.09588242  0.18162155
 -0.08927466 -0.14154379 -0.11943918 -0.20192415  0.14134914 -0.02559788
  0.16247755  0.16828975  0.07989508 -0.12860471 -0.05307924  0.05545378
 -0.17402361 -0.14284965  0.07800075 -0.06680903 -0.09156135  0.11039604
  0.2564123   0.12010673  0.12107963 -0.10650826 -0.0261417  -0.05263332
  0.0885258  -0.11064759  0.00984964  0.16984035  0.0838716   0.04749248
 -0.09079446  0.01151894  0.12723452  0.042016    0.08312042  0.0622812
 -0.09812895  0.0301562  -0.09239164 -0.04342169  0.13689815 -0.05776946
 -0.09558696  0.08746118 -0.10568093 -0.12165964  0.19074358 -0.21104401
 -0.02775739  0.05582712  0.17227554 -0.09752004  0.0277604   0.07163558
 -0.09410909  0.19933957  0.01033988  0.20645739 -0.01348161  0.0671211
 -0.21270783  0.10583724  0.02264465  0.01903209  0.14007829 -0.0197212
 -0.0362555  -0.02796387  0.11199685 -0.09069898 -0.11168757  0.15798226
  0.17938635 -0.06445302  0.02297414 -0.21091336 -0.23170683 -0.2123746
  0.06107812 -0.05707048 -0.12675774  0.06896335 -0.14735733 -0.00605822
  0.07102814 -0.13867183 -0.0663188  -0.04748251 -0.0525558  -0.17370063
  0.1001459  -0.07685099  0.06563255 -0.17053561 -0.10932699 -0.0874272
 -0.14087293  0.03112695 -0.09021461 -0.12599143  0.15585178  0.14316268
  0.07942045 -0.0782539 ]
[ 0.02412597 -0.02555557  0.037069   -0.09642869 -0.08235677  0.2188752
  0.17484502 -0.15602303  0.32449085 -0.05782361  0.17174594 -0.20434836
 -0.2454594  -0.11557645  0.10296135 -0.24735259  0.06312009  0.01581895
  0.08432973 -0.04290859 -0.11616103  0.00891968 -0.15958211  0.10044659
  0.04897005  0.11279923  0.12785809  0.18302265 -0.02233319 -0.07790594
  0.16539264 -0.18995261 -0.13704614 -0.10368808 -0.00230314 -0.03121416
  0.00804234 -0.05699333 -0.13481669  0.05193701 -0.18160667  0.13998099
 -0.07504676 -0.08540004  0.04744747  0.10362697  0.10516704  0.06947283
  0.08464762  0.02610325  0.22784644 -0.09248214  0.01820893  0.0255286
 -0.19799834  0.07990035  0.09352198  0.2511706   0.00277099 -0.10604062
  0.22598778 -0.10992997  0.00465624  0.08083577 -0.1372102   0.23779623
  0.11280205 -0.11677903  0.12274167  0.14351931  0.12038817 -0.13574728
  0.08047078 -0.15738685 -0.13091439  0.319618   -0.11790308 -0.07032903
  0.14357828  0.15298182  0.05245749  0.3388661  -0.18062434 -0.22282287
 -0.0154245  -0.12876497  0.07881188  0.305744   -0.24410798  0.22669274
 -0.1152373   0.18267006  0.03834672 -0.07826875  0.1372125   0.00527531
  0.08969989 -0.14346026 -0.09319572 -0.07962951 -0.0888755   0.266597
  0.02467889 -0.0649365   0.00458199 -0.09608727 -0.12700582 -0.00664
 -0.03633968  0.07152415]
[ 0.12345912 -0.1371046  -0.04681177 -0.013027    0.03608114 -0.12748502
  0.19245698  0.02187253 -0.0596311  -0.1481845  -0.1137348  -0.06398272
 -0.14293598  0.06598634  0.23249629  0.06090352 -0.12131894  0.01829248
  0.16192025 -0.2191802   0.11402623  0.05239038 -0.02570211 -0.12405942
 -0.04833726  0.1507933   0.21522827  0.27552027  0.02374066 -0.04040676
 -0.14832653  0.03789467  0.00098405 -0.00307627 -0.01365228  0.02230917
  0.10260163  0.2075482   0.04013616 -0.07117067  0.12124904  0.23375425
 -0.07452486 -0.1206226  -0.13666867  0.19097029 -0.11586515 -0.10025623
  0.20741253  0.04506002  0.1554632   0.10270478 -0.23918314 -0.05747459
 -0.05454228  0.00394965  0.22364068  0.02397906 -0.08156147  0.00656405
  0.21834037  0.06386738 -0.10696481  0.0736431  -0.18243462 -0.1039293
 -0.02163473 -0.02660935  0.06548145  0.16995813  0.07394911 -0.02647267
  0.04885215  0.18100472  0.03937016 -0.15245993  0.19429006  0.04362863
  0.1188989  -0.05537385 -0.23375261 -0.12112472  0.07476098  0.09263467
  0.0042349   0.02360153 -0.16951868  0.07454748 -0.0066977  -0.22724354
 -0.10094631  0.04057743  0.14190015  0.04380665  0.07997386  0.08920777
 -0.22562182 -0.0017116  -0.11001965  0.04668519  0.05545576 -0.06307656
 -0.1165105  -0.21003135  0.13934945 -0.0380289   0.04473843 -0.06795402
 -0.00479337  0.14328851]
[ 0.1330711   0.29164243  0.05130114 -0.00479862  0.05214547  0.21734963
  0.27679205 -0.03623572  0.18341562 -0.00133586  0.18861929 -0.08573467
 -0.00965688  0.0092381  -0.13205397 -0.14209552  0.21645309  0.16489887
 -0.0637655   0.2691613   0.01046722 -0.03393305  0.2331988  -0.15929076
 -0.1905946  -0.19052932 -0.18711554  0.09466946  0.05896731 -0.14116709
 -0.00131366 -0.30431086  0.12184758  0.14604676  0.02881818  0.02415079
  0.1748401  -0.14578225 -0.04123659  0.09029914 -0.12161876 -0.03715856
 -0.01849388 -0.0793949   0.02226087 -0.1738923   0.00371127 -0.1400154
  0.19502124 -0.22995509 -0.15505861 -0.13576195 -0.16202322  0.08329943
  0.0829227  -0.03105438  0.07965298 -0.16051443  0.3160913   0.07688185
 -0.11729309 -0.05956963 -0.0645614  -0.10705037  0.2738969   0.06904484
  0.10544967 -0.0229741  -0.082877    0.00143353  0.17802864 -0.04910829
 -0.11615228  0.01728789 -0.07139929  0.21267466 -0.02304057  0.2936085
  0.06207733 -0.09566371 -0.15365191  0.2707291  -0.0116879  -0.05171881
 -0.21389736  0.26146272 -0.24468516  0.0538843   0.13472499  0.3044154
  0.15792617  0.18465796 -0.05023445 -0.08186516 -0.12150131 -0.16785388
 -0.1500205   0.06149445  0.21940984 -0.05060792 -0.13232026  0.3357049
  0.16267124 -0.03264396 -0.01566637 -0.16598932  0.14086363 -0.06881858
 -0.08688454  0.07303157]
[ 0.16461752 -0.2390435  -0.10747078 -0.04268194  0.20820215  0.07185906
 -0.00376955 -0.29530376 -0.0940498   0.14434713 -0.07204885  0.05195748
  0.00217205 -0.10229183  0.06327253  0.0473723  -0.01841292  0.09887142
 -0.08074709 -0.22593842 -0.07143036 -0.10571668 -0.22170414 -0.14217252
  0.31066024 -0.06465908 -0.03241453 -0.01129009 -0.07169365 -0.01698141
  0.04526655  0.11307108 -0.04671527 -0.16197164  0.04040372 -0.12535834
  0.22897379 -0.10192136 -0.26304874  0.03879626 -0.02915286  0.00940474
  0.05268454  0.14441964  0.12991309  0.14602949  0.05968098  0.03572625
  0.08603144  0.19581358 -0.03330441  0.09118378  0.03018345 -0.1900849
  0.16997086 -0.15811518 -0.22435112 -0.09966858  0.09384878 -0.00052924
  0.15714711  0.04252207  0.00316071  0.30824542 -0.04955807 -0.19186495
 -0.16961104 -0.16146985  0.01076763  0.04209379  0.03115167 -0.29154757
  0.06848064  0.24834424  0.29586673  0.00312142  0.2948801   0.05158763
